70
784
-0.020147746428847313
-0.029585247859358788
-0.03070812299847603
-0.019711947068572044
0.00042847651639021933
-0.031535930931568146
-0.02915545180439949
0.028032299131155014
0.03373152017593384
0.014637964777648449
-0.020786315202713013
0.0011518385726958513
0.00395232904702425
-0.03546204790472984
-0.007786155212670565
-0.023454220965504646
-0.020139634609222412
0.005033280234783888
-0.028107741847634315
-0.029191456735134125
-0.02333335392177105
-0.0061421142891049385
-0.01560120563954115
0.002286813221871853
-0.01407436840236187
-0.0016714377561584115
0.00038847330142743886
-0.03322085365653038
-0.01094193197786808
-0.007288077380508184
0.0177326500415802
0.0026662820018827915
-0.00015827588504180312
0.029499685391783714
0.034319933503866196
-0.001503893407061696
-0.0015653116861358285
0.015306485816836357
0.027695588767528534
0.016167785972356796
-0.023622147738933563
0.022408707067370415
-0.01735394448041916
-0.09550262987613678
-0.08449946343898773
-0.07699548453092575
0.02842707373201847
0.019363999366760254
0.009062877856194973
-0.0273058470338583
-0.014822734519839287
0.0017377735348418355
0.03542139008641243
-0.017431311309337616
-0.02219991758465767
0.01381863933056593
-0.02219916321337223
0.003506916109472513
0.022058462724089622
-0.008454620838165283
-0.03534071519970894
-0.022790390998125076
-0.015329042449593544
0.016823317855596542
-0.029359908774495125
-0.07138177752494812
-0.08888228237628937
-0.028893157839775085
-0.09284070134162903
-0.029622424393892288
-0.052622854709625244
-0.08083987981081009
-0.06069875508546829
-0.025278722867369652
-0.03429993987083435
-0.0911567285656929
-0.07897870987653732
-0.027303552255034447
-0.031215239316225052
-0.023899169638752937
-0.00711033632978797
0.017315618693828583
-0.0126000652089715
0.03464001044631004
0.011733932420611382
0.033821653574705124
-0.002361634047701955
0.010461267083883286
-0.028711874037981033
0.027896393090486526
-0.07245670258998871
-0.03875720873475075
-0.080726258456707
-0.09366634488105774
-0.05324820429086685
-0.0708598718047142
-0.06191680207848549
-0.060856036841869354
-0.06743936985731125
-0.034248992800712585
-0.032164327800273895
-0.0630887970328331
-0.0503116212785244
-0.047816965728998184
-0.03796994313597679
-0.02489173784852028
-0.07203671336174011
-0.03943297639489174
-0.00872894749045372
0.01805858127772808
-0.01473231054842472
0.007374235894531012
-0.03261846303939819
-0.03310764580965042
-0.02402362786233425
0.034919239580631256
-0.0058739143423736095
-0.04123733937740326
-0.07187290489673615
-0.07909943163394928
-0.07091554999351501
-0.09003742039203644
-0.07055886834859848
-0.06673942506313324
-0.06691250950098038
-0.08371240645647049
-0.0476628839969635
-0.060926321893930435
-0.08319894224405289
-0.08924899995326996
-0.08126416057348251
-0.02950103022158146
-0.025609610602259636
-0.02552175149321556
-0.03848161920905113
-0.05278515815734863
-0.029351094737648964
0.03559134900569916
-0.00279690558090806
-0.023872070014476776
-0.022403011098504066
-0.03165881335735321
-0.0047700959257781506
-0.04434112831950188
-0.03020053543150425
-0.0665949359536171
-0.0484934002161026
-0.035153768956661224
-0.06178959459066391
-0.06930465996265411
-0.08052466064691544
-0.026021849364042282
-0.03239225223660469
-0.03875678777694702
-0.028387099504470825
-0.06812498718500137
-0.061736784875392914
-0.044674403965473175
-0.043562885373830795
-0.08104817569255829
-0.07723033428192139
-0.06756846606731415
-0.07657365500926971
-0.044933997094631195
-0.07857903838157654
-0.024368975311517715
-0.03177227824926376
0.014207188971340656
0.012524533085525036
-0.012423430569469929
0.02798577770590782
-0.024983273819088936
-0.08776429295539856
-0.028289413079619408
-0.06983601301908493
-0.08076606690883636
-0.05114152282476425
-0.02617589943110943
-0.07778558135032654
-0.033608730882406235
-0.0905282273888588
-0.08330308645963669
-0.05202952027320862
-0.07822961360216141
-0.06406620889902115
-0.031217094510793686
-0.06283371895551682
-0.055896908044815063
-0.05811683088541031
-0.0642760843038559
-0.08676270395517349
-0.0712696835398674
-0.06273595243692398
-0.08478644490242004
-0.08841293305158615
-0.08436964452266693
0.014090572483837605
0.0172361321747303
0.030713066458702087
-0.0894228145480156
-0.07769079506397247
-0.049937643110752106
-0.07944756746292114
-0.026125861331820488
-0.06991007179021835
-0.061126530170440674
-0.062123849987983704
-0.05930668115615845
-0.053713999688625336
-0.0370914526283741
-0.07058946788311005
-0.06524012982845306
-0.08910412341356277
-0.08109479397535324
-0.06013629585504532
-0.0671519860625267
-0.05814184620976448
-0.08260337263345718
-0.03560469299554825
-0.0767383947968483
-0.08099084347486496
-0.0452815517783165
-0.08854719996452332
-0.06760257482528687
-0.01928732357919216
-0.026332804933190346
0.009396540932357311
-0.04465178772807121
-0.04579602926969528
-0.03148672729730606
-0.0789935439825058
-0.04257466271519661
-0.06569335609674454
-0.07510494440793991
-0.057162486016750336
-0.08539634197950363
-0.04998849332332611
-0.04770375043153763
-0.030678199604153633
-0.07883349061012268
-0.0698404312133789
-0.05835703760385513
-0.06614608317613602
-0.06144917756319046
-0.0527486577630043
-0.06300651282072067
-0.09005817770957947
-0.05457602068781853
-0.07395656406879425
-0.0350770503282547
-0.029602747410535812
0.018601946532726288
0.006157705094665289
-0.015650838613510132
0.012998432852327824
-0.08767919987440109
-0.03805805370211601
-0.08824626356363297
-0.07126583158969879
-0.04563918337225914
-0.07474284619092941
-0.04614052549004555
-0.0559031218290329
-0.062444087117910385
-0.029610373079776764
-0.07892753928899765
-0.06798111647367477
-0.06860212236642838
-0.06297819316387177
-0.09199807047843933
-0.08849093317985535
-0.029834624379873276
-0.07418632507324219
-0.03440116345882416
-0.07502178847789764
-0.07837945222854614
-0.060158517211675644
-0.061984043568372726
-0.0021533158142119646
-0.002798353089019656
-0.019979720935225487
-0.009550069458782673
-0.009404957294464111
-0.05335737392306328
-0.027894165366888046
-0.08232863992452621
-0.06295877695083618
-0.07807151228189468
-0.043498288840055466
-0.09103111177682877
-0.09351614117622375
-0.06320006400346756
-0.0941828042268753
-0.0564616397023201
-0.06961743533611298
-0.07899323850870132
-0.06745868921279907
-0.07089314609766006
-0.07223623991012573
-0.038098543882369995
-0.09453676640987396
-0.02795581705868244
-0.07052202522754669
-0.06838371604681015
-0.03652643412351608
-0.06494126468896866
-0.0003054397529922426
0.016557123512029648
-0.02644726261496544
-0.016790250316262245
0.017601920291781425
-0.01022485364228487
-0.05188507214188576
-0.06359226256608963
-0.082643061876297
-0.032389767467975616
-0.0490727499127388
-0.05996907502412796
-0.06512211263179779
-0.029079630970954895
-0.03358856961131096
-0.042776040732860565
-0.057748571038246155
-0.04565713182091713
-0.025343086570501328
-0.06083318218588829
-0.07031013816595078
-0.05574479326605797
-0.02747575007379055
-0.07035615295171738
-0.058099910616874695
-0.032965708523988724
-0.08589212596416473
0.046154964715242386
-0.028929030522704124
0.0033116426784545183
-0.019666200503706932
-0.021537981927394867
-0.024112246930599213
-0.023733608424663544
-0.07758959382772446
-0.048882413655519485
-0.03621877729892731
-0.06352497637271881
-0.05733542516827583
-0.06349202990531921
-0.09122133255004883
-0.08249520510435104
-0.08276943862438202
-0.05318251624703407
-0.024745561182498932
-0.06654740869998932
-0.027138153091073036
-0.07068060338497162
-0.042801447212696075
-0.09292106330394745
-0.050105735659599304
-0.05470215156674385
-0.07683417946100235
-0.05133984982967377
-0.045158226042985916
0.06633438169956207
0.020881857722997665
-0.01690039597451687
-0.02924163080751896
0.014581472612917423
-0.01775318942964077
-0.017210423946380615
0.04469365254044533
-0.07685849070549011
-0.03229357302188873
-0.0527055561542511
-0.07519862800836563
-0.09359171241521835
-0.031977009028196335
-0.02800978533923626
-0.0519135408103466
-0.04303327202796936
-0.04693962261080742
-0.034772101789712906
-0.07173732668161392
-0.0713784322142601
-0.030153848230838776
-0.02906375750899315
-0.0793365016579628
-0.05164707452058792
-0.039493806660175323
-0.07537747174501419
-0.09087754040956497
0.09005369991064072
-0.027583902701735497
0.02778417430818081
0.011229238472878933
-0.05365322157740593
0.02734619937837124
0.023198707029223442
0.06423676013946533
-0.09454835206270218
-0.04141189157962799
-0.03570251166820526
-0.08906403183937073
-0.04102445766329765
-0.0514570027589798
-0.03966972976922989
-0.047218602150678635
-0.045331504195928574
-0.0762949213385582
-0.05248713120818138
-0.08041436225175858
-0.08155561983585358
-0.06505535542964935
-0.054197315126657486
-0.0772695317864418
-0.08548980951309204
-0.04764905199408531
-0.08080369979143143
-0.09198454767465591
0.09174441546201706
-0.00743957981467247
-0.009444969706237316
0.013590770773589611
-0.007263051811605692
-0.037357911467552185
-0.0764767974615097
-0.08672618120908737
-0.08759715408086777
-0.02517094276845455
-0.07798630744218826
-0.06086120009422302
-0.027059616521000862
-0.048659827560186386
-0.07994173467159271
-0.04593665525317192
-0.05299463868141174
-0.03027956373989582
-0.0676824152469635
-0.035598404705524445
-0.06941594928503036
-0.04203765094280243
-0.08149510622024536
-0.06822121143341064
-0.0785757303237915
-0.03976770117878914
-0.03751873970031738
-0.03201829642057419
-0.08556272089481354
0.013027889654040337
0.030342742800712585
-0.0282721146941185
0.0047060297802090645
-0.09462104737758636
-0.06380737572908401
-0.0950147807598114
-0.04386338219046593
-0.05374456197023392
-0.07553631067276001
-0.08917418122291565
-0.02615491859614849
-0.09460914134979248
-0.03164805471897125
-0.05151795595884323
-0.06876134872436523
-0.05819070711731911
-0.07587496936321259
-0.07672616094350815
-0.06070045381784439
-0.049993179738521576
-0.03678499907255173
-0.05325929820537567
-0.03934800252318382
-0.02503560110926628
-0.08784515410661697
-0.04889192432165146
-0.04663636162877083
-0.06881807744503021
0.02433081343770027
-0.026419900357723236
0.027962878346443176
-0.0734841525554657
-0.05761073902249336
-0.08606655150651932
-0.04985928535461426
-0.028442993760108948
-0.030312782153487206
-0.08039069920778275
-0.03625337779521942
-0.06919842213392258
-0.06375454366207123
-0.05915281921625137
-0.03822079673409462
-0.09457074850797653
-0.05106697231531143
-0.05470483377575874
-0.07856027036905289
-0.05777368322014809
-0.0371674969792366
-0.027961749583482742
-0.08755015581846237
-0.09109904617071152
-0.065887950360775
-0.0934453010559082
-0.09144094586372375
-0.07892855256795883
-0.02086922712624073
-0.022712325677275658
-0.01322134118527174
0.011945546604692936
-0.0943954586982727
-0.051206301897764206
-0.08326297998428345
-0.02457875944674015
-0.06934505701065063
-0.02562873251736164
-0.08017562329769135
-0.029504675418138504
-0.045120034366846085
-0.08450295031070709
-0.07550409436225891
-0.05411659553647041
-0.04237581789493561
-0.07432666420936584
-0.04163108766078949
-0.028155727311968803
-0.04258516803383827
-0.07651425153017044
-0.0591718964278698
-0.0825771614909172
-0.041158173233270645
-0.05352330952882767
-0.09286658465862274
-0.06627918034791946
-0.030701884999871254
0.015342325903475285
0.03475175425410271
-0.027806483209133148
-0.0326305590569973
-0.09309425204992294
-0.05186344310641289
-0.025140611454844475
-0.07721374928951263
-0.0621504969894886
-0.035352177917957306
-0.08900101482868195
-0.0506141297519207
-0.0258511733263731
-0.06059408560395241
-0.04626314714550972
-0.08462673425674438
-0.044645704329013824
-0.06972592324018478
-0.04826468974351883
-0.03508739173412323
-0.08947430551052094
-0.09023985266685486
-0.05304165557026863
-0.05679209530353546
-0.03938855975866318
-0.02868875116109848
-0.032206710427999496
0.02927149273455143
-0.016131138429045677
0.012529016472399235
0.029315736144781113
-0.05791037157177925
-0.08329357951879501
-0.08450589329004288
-0.09299939125776291
-0.06550552695989609
-0.037825699895620346
-0.09524582326412201
-0.03546791896224022
-0.039738915860652924
-0.07460545003414154
-0.026271097362041473
-0.06335662305355072
-0.06229124963283539
-0.08421371877193451
-0.030407577753067017
-0.04102827236056328
-0.07014281302690506
-0.0279704499989748
-0.04119715094566345
-0.0874059796333313
-0.027507735416293144
-0.0720856711268425
-0.09448576718568802
0.01959959603846073
-0.011359709315001965
0.01283890102058649
0.01786448433995247
0.008339456282556057
-0.024636797606945038
-0.06670604646205902
-0.06937761604785919
-0.0774175301194191
-0.09025944769382477
-0.08793038874864578
-0.06309300661087036
-0.0811353474855423
-0.026996273547410965
-0.03852462023496628
-0.02757171168923378
-0.026569165289402008
-0.02641516737639904
-0.02637532912194729
-0.07991091161966324
-0.07199478894472122
-0.04699910059571266
-0.07150478661060333
-0.08846592158079147
-0.03959448263049126
-0.042288731783628464
-0.08932655304670334
-0.03851163759827614
0.02859337069094181
-0.01998833380639553
-0.014995460398495197
0.014674527570605278
-0.03456830233335495
-0.09374270588159561
-0.03560309857130051
-0.05374661460518837
-0.03270665183663368
-0.08446032553911209
-0.03829991817474365
-0.07581555098295212
-0.06221168860793114
-0.06599337607622147
-0.0457942858338356
-0.07001420855522156
-0.06284736841917038
-0.06778158992528915
-0.06416020542383194
-0.03618009388446808
-0.034006357192993164
-0.07699362188577652
-0.038940656930208206
-0.06354481726884842
-0.038617830723524094
-0.05962816998362541
-0.092892587184906
0.022474341094493866
-0.018205685541033745
0.001519411918707192
0.032940350472927094
-0.03186774253845215
-0.06962115317583084
-0.08253730833530426
-0.07008189707994461
-0.09370384365320206
-0.04548460245132446
-0.06060243770480156
-0.05516424402594566
-0.05706869810819626
-0.07323698699474335
-0.0488055944442749
-0.061170779168605804
-0.09539870917797089
-0.07079394161701202
-0.09321093559265137
-0.07929012924432755
-0.08499707281589508
-0.05976814776659012
-0.07136531919240952
-0.059061527252197266
-0.02493939734995365
-0.05024116858839989
-0.07789869606494904
-0.03910654038190842
0.001862359931692481
0.0037278279196470976
-0.008851115591824055
0.0012014210224151611
0.01934727653861046
-0.010498630814254284
-0.027804460376501083
0.005321907345205545
-0.08674108237028122
-0.09487961232662201
-0.029563236981630325
-0.04410277307033539
-0.06313470751047134
-0.08678541332483292
-0.05411774292588234
-0.06286629289388657
-0.05079817771911621
-0.04881187155842781
-0.0390201136469841
-0.08510301262140274
-0.07461119443178177
-0.05408370494842529
-0.08636736869812012
-0.05593674257397652
-0.02915249578654766
-0.045616962015628815
-0.033627402037382126
-0.08335264027118683
-0.03280138596892357
-0.02615731582045555
0.0010227604070678353
-0.019605083391070366
-0.004721709992736578
0.03410042077302933
-0.032586392015218735
-0.0241969246417284
0.057525064796209335
-0.05564640089869499
-0.024712728336453438
-0.053563494235277176
-0.0684276670217514
-0.0511152558028698
-0.09416336566209793
-0.0878879502415657
-0.08970127999782562
-0.08318974822759628
-0.07553209364414215
-0.06537560373544693
-0.08715839684009552
-0.08984645456075668
-0.040292974561452866
-0.08574087172746658
-0.06071022152900696
-0.03294423222541809
-0.06453371793031693
-0.045470211654901505
0.0014399972278624773
0.026204992085695267
0.025707723572850227
-0.02627442218363285
0.026514211669564247
-0.012549481354653835
-0.0349581204354763
0.02315841056406498
-0.07188311964273453
-0.04490312188863754
-0.0842871367931366
-0.07916191965341568
-0.028747649863362312
-0.07863098382949829
-0.09124527126550674
-0.09042054414749146
-0.04792710766196251
-0.014850059524178505
-0.03499545156955719
-0.03683404251933098
-0.08664818853139877
-0.03176932409405708
-0.03498923406004906
0.02333255484700203
-0.014655024744570255
-0.015866586938500404
0.03153594583272934
-0.028552398085594177
-0.020663462579250336
-0.01942889206111431
-0.02058335393667221
0.0006616201135329902
-0.021919365972280502
-0.006567465607076883
-0.006669564172625542
0.01825273595750332
0.009338051080703735
-0.03548740968108177
-0.022086208686232567
0.017201781272888184
-0.016083547845482826
0.039026279002428055
0.029438907280564308
0.08589017391204834
-0.003174436977133155
-0.0021746926940977573
0.013168688863515854
-0.03427139297127724
-0.04255107790231705
-0.017561418935656548
-0.015050288289785385
0.02540956810116768
-0.03553251922130585
0.016970209777355194
-0.034379467368125916
-0.016009297221899033
0.01958576776087284
0.014505889266729355
-0.019315553829073906
-0.014077532105147839
-0.00045588615466840565
-0.03528237342834473
-0.025650467723608017
-0.005623826291412115
-0.015400031581521034
-0.026405688375234604
0.03400127589702606
0.0077901273034513
0.020525094121694565
0.01792634092271328
0.018041815608739853
1.3739044666290283
1.063151240348816
-0.8333593010902405
-0.8266637325286865
-0.01258485671132803
0.014792936854064465
0.029814261943101883
-0.007138520944863558
-0.02149263583123684
0.008338128216564655
0.03528701141476631
0.01502207387238741
0.017486121505498886
-0.021522020921111107
0.01825469359755516
-0.0089210020378232
-0.021772440522909164
0.01832209900021553
0.014318318106234074
0.03494589403271675
-0.2361508309841156
-0.30440521240234375
0.698100209236145
0.8561583757400513
0.5859068036079407
0.20967017114162445
-0.643182098865509
0.6116795539855957
1.3076432943344116
0.8849601149559021
0.5741679668426514
0.556535542011261
-0.48369884490966797
0.49301180243492126
-1.8810937404632568
-1.186179757118225
-1.1720092296600342
-0.08149304240942001
0.1587032526731491
-0.26950573921203613
-0.022656293585896492
0.015463076531887054
0.025250231847167015
0.016471480950713158
0.007817468605935574
-0.035390455275774
-0.3870188295841217
-1.4941259622573853
1.3312091827392578
0.12436918169260025
0.11628728359937668
0.9215282797813416
1.0510213375091553
-0.24837982654571533
0.5559192895889282
0.24283963441848755
0.27435556054115295
0.10267019271850586
0.6469700932502747
0.34337252378463745
0.5344997644424438
0.43590542674064636
0.5837480425834656
0.4486500322818756
-0.2825954854488373
0.1221972405910492
-0.10572858154773712
-1.3627270460128784
0.013671492226421833
-0.11242515593767166
0.006423954851925373
0.024570252746343613
-0.023695925250649452
0.024659503251314163
-0.8034247756004333
-1.8093838691711426
-0.8754298686981201
-0.1667598932981491
0.4322085678577423
0.08160801231861115
0.44697585701942444
0.1943141371011734
0.040620435029268265
0.16970841586589813
0.5300812721252441
-0.30812451243400574
-0.018755603581666946
0.38621556758880615
-0.07280734926462173
-0.3175980746746063
0.05268324166536331
-0.10133643448352814
0.44413936138153076
0.2087988406419754
0.5056919455528259
-0.9651404023170471
-1.313065528869629
-0.3695325255393982
-0.19789423048496246
-0.011182853952050209
-0.03302530199289322
-0.12651588022708893
-0.9364174008369446
1.5093344449996948
1.373112440109253
0.7657938599586487
0.35072702169418335
-0.8165673613548279
-0.5950276255607605
-0.36866331100463867
0.6101359128952026
0.28301623463630676
0.6449846625328064
0.5875552892684937
0.5106368660926819
0.3239809274673462
0.0966079831123352
0.16782326996326447
0.07509443163871765
-0.3088848888874054
-0.18734534084796906
-0.22760018706321716
0.27440986037254333
0.5464464426040649
-0.14014080166816711
-1.382995367050171
-0.06416577100753784
0.457263320684433
-0.03379419445991516
0.033890604972839355
-0.7927678823471069
1.2060073614120483
-0.2574291229248047
-0.5618767738342285
-0.30261126160621643
-0.4043033719062805
-0.7123139500617981
-0.4810076057910919
0.16873595118522644
0.3328796923160553
-0.044916633516550064
-0.3246093988418579
-0.4745703935623169
-0.6193758249282837
-0.31613582372665405
-0.4239690601825714
-0.5419803261756897
-0.013344739563763142
-0.21602442860603333
-0.09986084699630737
-0.3157781660556793
-0.6626147627830505
0.27566826343536377
-1.0880613327026367
-0.8243235945701599
-1.2952650785446167
0.023965951055288315
0.00029200894641689956
0.7293311357498169
0.6969714164733887
0.338653028011322
-0.6329994797706604
-0.09230493009090424
0.03284138813614845
0.23377998173236847
-0.028170175850391388
-0.2532770037651062
-0.17740358412265778
-0.023223627358675003
-0.06982623040676117
0.025349171832203865
-0.1615269035100937
-0.22664141654968262
-0.08425840735435486
0.19149543344974518
-0.04400050267577171
-0.2064710110425949
-0.5527017116546631
-0.5350024104118347
-0.07422089576721191
0.3174092471599579
0.5185279250144958
0.7300683259963989
-0.16673921048641205
0.07199037820100784
-0.4634166359901428
-0.009797309525310993
0.5511232614517212
-0.009239845909178257
0.3086991012096405
0.1986650824546814
0.5434364676475525
0.21554090082645416
0.08441703021526337
-0.0681266114115715
-0.05028363689780235
0.3333641290664673
0.11501570045948029
-0.15198388695716858
-0.004950265865772963
-0.27956151962280273
-0.011756687425076962
-0.14727158844470978
-0.26518234610557556
0.12821675837039948
-0.1759651154279709
0.0229897890239954
0.02029811218380928
-0.40647563338279724
-1.553877592086792
-0.8486554622650146
0.6397302150726318
0.07324855029582977
-1.692589521408081
0.3392481803894043
-0.17751146852970123
0.004205376375466585
0.007553975097835064
0.050234079360961914
-0.18995314836502075
0.17818772792816162
0.12760378420352936
0.1606428176164627
0.23554855585098267
0.22397381067276
0.3945814073085785
-0.16164734959602356
-0.11123728007078171
-0.1427135318517685
-0.03511260077357292
-0.21325504779815674
-0.07641657441854477
-0.033184293657541275
-0.20515471696853638
0.004214176442474127
-0.25335291028022766
-0.20757900178432465
-1.22110116481781
-0.049125950783491135
-1.523587942123413
-1.0746654272079468
-1.5690217018127441
1.3755325078964233
-0.13207197189331055
0.10439613461494446
0.2229437679052353
0.26368412375450134
0.14584851264953613
-0.1585749387741089
-0.015198237262666225
0.19048529863357544
0.021492598578333855
0.23590132594108582
0.29880836606025696
-0.2520301342010498
-0.2581208646297455
0.08324102312326431
-0.10866652429103851
0.10617165267467499
-0.14155912399291992
-0.0789056271314621
-0.2021653652191162
-0.22692157328128815
0.283108651638031
0.33506467938423157
0.7965614199638367
0.30502980947494507
2.9813051223754883
-1.0664921998977661
-1.3235596418380737
-0.22224858403205872
-0.5112358331680298
0.30665281414985657
-0.12336967140436172
-0.198407843708992
0.30093905329704285
0.23739030957221985
0.1265789270401001
0.2561520040035248
-0.17649924755096436
-0.002031620591878891
0.11904748529195786
-0.04961247742176056
0.2102796882390976
0.05366933345794678
0.01368863694369793
-0.15225020051002502
-0.11928927153348923
-0.15053056180477142
-0.6639570593833923
-0.22239631414413452
-0.6930950284004211
0.24577893316745758
-0.021707119420170784
0.35887613892555237
1.4273242950439453
-1.481536865234375
-0.6492189764976501
-0.5745078325271606
0.8081604838371277
0.44562363624572754
0.016952767968177795
-0.05346820130944252
0.10553380846977234
-0.06626226007938385
0.07474945485591888
-0.037282008677721024
-0.5009776949882507
0.027966437861323357
0.2890217900276184
0.04368345066905022
0.03142308071255684
-0.24268880486488342
0.20306341350078583
-0.18722380697727203
0.22558902204036713
0.29359012842178345
0.027473364025354385
0.2722183167934418
0.06285703927278519
-0.024321654811501503
-1.523805022239685
-0.544646680355072
-0.9430170655250549
-0.500361442565918
0.7362279891967773
-0.873187780380249
0.08088813722133636
-0.439653605222702
-0.04379433020949364
0.18009375035762787
0.2637321650981903
0.24320290982723236
-0.015734069049358368
-0.14730025827884674
-0.312924861907959
-0.4282051622867584
0.19503283500671387
-0.10099130123853683
-0.12460201233625412
0.0012577925808727741
-0.057534653693437576
-0.022788027301430702
0.3545260727405548
-0.08113036304712296
0.024390656501054764
-0.2787213623523712
-0.47632238268852234
0.2912154793739319
-0.5846149921417236
-0.35396263003349304
0.21649247407913208
-0.6199912428855896
0.6014421582221985
-0.30939656496047974
-1.2923699617385864
-0.2961997091770172
-0.12197411060333252
-0.33104416728019714
-0.10641580075025558
0.05517543852329254
0.12682519853115082
0.2648297846317291
0.08104407042264938
0.14003683626651764
-0.029439188539981842
-0.009442055597901344
0.017878059297800064
-0.06009478494524956
-0.08919161558151245
0.05322282016277313
-0.08235888928174973
0.16391947865486145
0.2126890867948532
-0.15557071566581726
-0.2607495188713074
-0.04760967195034027
-0.4262193739414215
-1.8275086879730225
-0.7897193431854248
-0.2856001853942871
0.0948120579123497
0.6437724232673645
0.04857577383518219
-0.38649970293045044
-0.4963495135307312
0.10074746608734131
-0.029506120830774307
-0.007839370518922806
0.12680794298648834
0.09052848815917969
0.027392366901040077
-0.07644402235746384
-0.2745601534843445
-0.05718504264950752
-0.2207174152135849
0.09062139689922333
0.11546073853969574
0.14183300733566284
-0.06359897553920746
0.06455583870410919
0.24136020243167877
-0.6159500479698181
-0.04092978686094284
0.1301167905330658
0.4897032380104065
-1.5478947162628174
-0.9637987613677979
0.7196938991546631
-0.347790390253067
0.6765701770782471
1.4573358297348022
-0.5840352773666382
-0.2931891083717346
0.09368627518415451
0.0751023143529892
-0.1044323518872261
0.11020951718091965
-0.044068820774555206
-0.049464449286460876
0.04289325326681137
-0.05212760716676712
-0.05820431932806969
-0.24414710700511932
0.020066821947693825
0.21479007601737976
-0.10313686728477478
0.05265386030077934
0.04431580752134323
0.14120838046073914
-0.44037356972694397
-0.47112345695495605
0.08919507265090942
0.5576477646827698
-0.6519079208374023
-1.8002938032150269
1.1762739419937134
0.09604061394929886
-0.282800555229187
1.1428806781768799
-0.806511640548706
-0.22987021505832672
0.08300165086984634
-0.2607627213001251
-0.08993764221668243
-0.18630866706371307
0.0529584102332592
0.09296583384275436
0.12585297226905823
0.01892225630581379
-0.13838502764701843
-0.08291361480951309
0.22619090974330902
0.07918383926153183
-0.038905829191207886
-0.08761777728796005
-0.11112689971923828
0.1554027497768402
-0.09475765377283096
0.0452960729598999
-0.4624457359313965
0.5219051241874695
-1.260615348815918
0.8991193175315857
0.0009126748773269355
0.05857711285352707
0.005857647396624088
-0.9371877312660217
-0.5392172336578369
-0.5076939463615417
-0.3090149164199829
-0.2765965163707733
-0.09126494079828262
-0.022063398733735085
0.03617757931351662
0.1562594771385193
0.011583317071199417
0.06021915003657341
-0.3743998110294342
0.04985429719090462
0.16935868561267853
-0.20685698091983795
0.26007896661758423
0.07254447042942047
-0.11473473906517029
-0.1606324464082718
-0.4381601810455322
0.3469625413417816
0.02951117418706417
0.19569054245948792
-1.9037319421768188
0.21191897988319397
-0.0071486434899270535
-0.5110071897506714
0.017688367515802383
0.017719371244311333
-0.6003454327583313
0.2911387085914612
-0.5130345821380615
-0.48323217034339905
-0.14620937407016754
0.21004492044448853
0.22154571115970612
-0.22716833651065826
0.03726112097501755
0.15235377848148346
0.047665342688560486
0.2176344096660614
0.2657109498977661
-0.10189864784479141
0.04559488222002983
0.10247446596622467
-0.10762841999530792
-0.2863427400588989
-0.358058363199234
0.46811798214912415
0.32928839325904846
1.222220540046692
-0.1954890489578247
0.19640915095806122
-0.02932385355234146
-0.6140292882919312
-0.09241193532943726
0.05460430309176445
-0.6756603121757507
-0.027774473652243614
-0.11711955070495605
-0.315229594707489
0.16166284680366516
0.18818335235118866
-0.3451724648475647
-0.8172873258590698
-0.44570669531822205
-0.4216482937335968
0.14600181579589844
-0.03467469662427902
0.12408360093832016
-0.814062237739563
-0.9049124717712402
-0.6468692421913147
-0.37233811616897583
-0.14070166647434235
-0.23133505880832672
-0.19155192375183105
0.014821592718362808
0.9521070718765259
0.20867133140563965
-0.04592690244317055
-0.0324796624481678
0.2047831416130066
2.050309658050537
-0.2528012692928314
-0.6075690984725952
-0.19589641690254211
1.1169039011001587
0.709998369216919
0.19009941816329956
0.05366615578532219
-1.0089349746704102
-1.2356278896331787
-0.3562847673892975
0.21220949292182922
0.6469449996948242
0.40640321373939514
0.36348503828048706
-0.7019138932228088
-0.3243420720100403
-0.43722090125083923
-0.15692755579948425
-0.056178782135248184
0.2050616294145584
-0.11152472347021103
-0.7897137403488159
0.4282841086387634
-0.831132709980011
-0.08418726176023483
0.03160116448998451
0.49482792615890503
0.7017493844032288
-0.4142959415912628
-1.2698549032211304
-1.4157434701919556
-0.06146606430411339
0.11747147887945175
-1.6459306478500366
-0.5642272233963013
-0.6386706233024597
0.04375690594315529
-0.23065270483493805
0.13966511189937592
0.8309464454650879
0.8680112361907959
0.7296608686447144
-0.334881067276001
-0.09591227024793625
-0.09957511723041534
0.06996887922286987
-0.0855875089764595
0.1158156543970108
0.07599079608917236
0.8890476822853088
0.08436545729637146
-1.3014178276062012
0.07374618947505951
-0.0067964838817715645
0.00553784379735589
-0.234422966837883
-0.32676365971565247
-0.13094602525234222
-0.7119548916816711
-0.7334452271461487
-1.0827239751815796
-1.293711543083191
-1.880513310432434
-1.9026745557785034
-0.9156500101089478
-0.49899762868881226
0.026878343895077705
0.844730794429779
0.7185195088386536
-0.0076520731672644615
-0.029147783294320107
-0.5872648358345032
-0.2976874113082886
-0.545566201210022
-0.8937855958938599
-0.16109423339366913
0.31424322724342346
-0.7577329874038696
-0.7268098592758179
-1.4502133131027222
0.05107063427567482
-0.013371502049267292
-0.008441048674285412
-0.5999842286109924
-0.19317466020584106
0.3046687841415405
0.1677585244178772
-0.6432082056999207
-0.873500406742096
-1.743986964225769
-1.9409223794937134
-1.0087816715240479
-0.5820186138153076
-0.5245063900947571
-0.5200352668762207
-0.11789534986019135
0.03240958973765373
-0.10581230372190475
-0.5616963505744934
-0.7508324384689331
-0.8185824751853943
-0.699072539806366
0.047716766595840454
1.1106212139129639
0.6425787806510925
-0.8459251523017883
-1.6838419437408447
-0.32874149084091187
-0.03351549431681633
0.00801900029182434
0.018577754497528076
-0.2871749997138977
-0.6148425340652466
-1.0671617984771729
-1.273578405380249
-1.8135567903518677
0.06412961333990097
-2.8906784057617188
-0.7799587249755859
-0.4141370356082916
0.11375066637992859
0.3021096885204315
0.39500510692596436
0.40715962648391724
0.9305000901222229
0.62325119972229
-0.24122193455696106
-0.16081050038337708
0.3270079493522644
-0.19343677163124084
-1.206722617149353
1.235416054725647
-0.24800832569599152
-0.8697500228881836
-0.03318046033382416
0.46158650517463684
-0.014482622034847736
0.010791600681841373
0.031708668917417526
1.5291194915771484
-0.6396093368530273
-0.658547043800354
-0.5193324685096741
0.04133693128824234
0.29968589544296265
-0.7015876770019531
0.5709019899368286
0.3101256489753723
0.03456999361515045
0.02114199288189411
0.4442611336708069
0.1592957228422165
0.43797266483306885
-0.9655484557151794
-1.3364046812057495
-0.597710907459259
0.6112446784973145
0.7473976016044617
0.18143755197525024
0.07181212306022644
-2.4149396419525146
-0.6009612679481506
-0.1472771018743515
-0.10674834996461868
-0.02740912139415741
-0.027181293815374374
0.009271000511944294
-0.013216785155236721
0.07696756720542908
-0.06321816891431808
-0.01052852999418974
-1.065504550933838
1.7872432470321655
0.23917193710803986
-0.7421761751174927
-0.20978495478630066
-0.5570666790008545
-0.46391716599464417
-0.024206509813666344
0.003583721350878477
-0.07885214686393738
-0.17956185340881348
-0.32046377658843994
-0.5842457413673401
-0.15052810311317444
0.9801619052886963
-1.1626595258712769
-1.2933647632598877
-0.827944815158844
-1.176367163658142
-0.16640308499336243
0.007984834723174572
0.02019050344824791
-0.02986835315823555
-0.011851038783788681
-0.006954938638955355
0.02517196722328663
-0.1698267161846161
-0.16930724680423737
0.18832078576087952
-0.6046316623687744
-0.5188298225402832
-0.39712202548980713
0.7458298206329346
-0.13231024146080017
-0.19488240778446198
0.6880841851234436
-0.4424269199371338
-0.17632164061069489
0.38030216097831726
0.7416081428527832
-0.4421946406364441
-1.057658314704895
-0.1932438760995865
-0.8624032139778137
-0.8702656030654907
-0.009326105006039143
-0.015217053703963757
-0.03073045238852501
-0.002119609387591481
-0.022125517949461937
-0.03518592566251755
0.03525608032941818
-0.019825007766485214
0.024053135886788368
0.026908650994300842
0.011561901308596134
0.0326274149119854
-0.019238924607634544
0.031079187989234924
-0.02339055761694908
-0.013212294317781925
0.015110527165234089
0.03028564155101776
-0.016942506656050682
-0.019634872674942017
-0.0258255023509264
-0.010000455193221569
0.024629691615700722
-0.012594521977007389
0.03435429558157921
0.01892906427383423
-0.020114243030548096
-0.026805998757481575
-0.01721821539103985
-0.03011528216302395
-0.006795623805373907
0.003438873216509819
0.026744920760393143
-0.012286348268389702
0.03459881991147995
-0.015002583153545856
-0.0016045741504058242
-0.01245915051549673
-0.0012901127338409424
0.027733400464057922
0.020523756742477417
-0.015730245038866997
0.03319311887025833
-0.06513509154319763
-0.06404103338718414
-0.029014742001891136
-0.027626629918813705
-0.01996541954576969
0.0075205652974545956
-0.02023877575993538
-0.03786967322230339
-0.04506244510412216
0.022098129615187645
0.004170379601418972
-0.03256283327937126
0.012728419154882431
-0.01617269031703472
-0.0020755701698362827
-0.03291793167591095
-0.011092646047472954
0.0012105618370696902
0.024690408259630203
-0.014483116567134857
-0.027374878525733948
0.014210591092705727
0.0354950837790966
0.030135968700051308
0.01951531134545803
0.030413540080189705
-0.008144404739141464
-0.06523055583238602
-0.0666714757680893
-0.09999711811542511
-0.06422795355319977
0.09540330618619919
-0.026783963665366173
-0.018381621688604355
-0.05080057308077812
-0.026589011773467064
-0.060961563140153885
-0.0856468454003334
-0.03354159742593765
0.03101559728384018
0.02598142810165882
-0.008204801008105278
-0.0002971334324683994
0.02781691774725914
-0.02981586754322052
0.017453348264098167
-0.031409937888383865
0.029912354424595833
-0.012260688468813896
-0.016594529151916504
-0.039650555700063705
-0.05235547944903374
0.02243061177432537
0.02843635156750679
-0.08009891957044601
-0.06467048823833466
-0.05689365044236183
-0.10550154000520706
-0.10239038616418839
-0.1062832623720169
-0.05066429078578949
-0.038520630449056625
-0.05449555441737175
-0.038116637617349625
-0.07872575521469116
-0.031780071556568146
0.03281669691205025
-0.03032408095896244
-0.012284846045076847
-0.033640820533037186
-0.0021876778919249773
-0.015455033630132675
0.0023395761381834745
0.026332996785640717
-0.025787170976400375
0.0269617959856987
0.017271749675273895
0.019643431529402733
-0.01510118693113327
-0.05502863973379135
-0.08044476062059402
-0.08919655531644821
-0.06565477699041367
-0.07027815282344818
-0.05245835706591606
-0.0970260500907898
-0.10836318880319595
-0.04701822251081467
-0.0995677039027214
-0.06034775823354721
-0.05968824401497841
-0.05914921313524246
-0.09241189062595367
-0.06873401999473572
-0.0625515803694725
-0.07683704048395157
-0.0662408098578453
-0.03215900436043739
-0.05567276105284691
0.0027067577466368675
0.03082849457859993
-0.01946486346423626
0.003611390246078372
0.033327069133520126
-0.018137812614440918
-0.03524525463581085
-0.006466169375926256
-0.036131601780653
-0.07219874113798141
-0.07901373505592346
-0.056625623255968094
-0.06605462729930878
-0.0672302395105362
-0.09810227155685425
-0.04483509436249733
-0.033156171441078186
-0.06452468037605286
-0.04149216413497925
-0.05106387659907341
-0.058219995349645615
-0.06858353316783905
-0.07389099895954132
-0.07577487081289291
-0.05386922135949135
-0.09483695775270462
-0.08392926305532455
-0.08661391586065292
0.051260560750961304
0.02004360780119896
0.007527424022555351
0.02481684274971485
-0.015592524781823158
-0.013100752606987953
0.02635188214480877
-0.04134262353181839
-0.04700244590640068
-0.04208666458725929
-0.038863588124513626
-0.06195742264389992
-0.043231286108493805
-0.028441429138183594
-0.03257514536380768
-0.031006405130028725
-0.09313315153121948
-0.044855207204818726
-0.08039198070764542
-0.08606576919555664
-0.05425995960831642
-0.06868526339530945
-0.05674903467297554
-0.06295295804738998
-0.05092579871416092
-0.05512780696153641
-0.07095564156770706
-0.06775238364934921
-0.039873912930488586
-0.050935275852680206
-0.018903929740190506
-0.003841063939034939
-0.021001216024160385
0.010330626741051674
-0.053267598152160645
-0.017239930108189583
-0.06030391901731491
-0.00878937728703022
-0.033391524106264114
-0.04002147540450096
-0.05719873681664467
-0.05019249767065048
-0.06418335437774658
-0.061690159142017365
-0.07735946774482727
-0.01770610176026821
-0.06458961963653564
-0.03870963305234909
-0.07763083279132843
-0.0706091970205307
-0.04366244375705719
-0.10019562393426895
-0.05216117203235626
-0.07434317469596863
-0.05210333690047264
-0.07453849911689758
-0.031213093549013138
-0.08081959187984467
-0.01035606861114502
-0.028490161523222923
-0.021374883130192757
0.025211269035935402
-0.04670140892267227
0.01965523511171341
-0.019501879811286926
0.00042222143383696675
-0.03405332192778587
-0.03425491228699684
-0.06236198544502258
-0.02462204173207283
-0.07266832143068314
-0.039425574243068695
-0.05734819546341896
-0.013609721325337887
-0.06641851365566254
-0.056005168706178665
-0.034076347947120667
-0.04686976596713066
-0.03844283148646355
-0.049291979521512985
-0.059430092573165894
-0.08584212511777878
-0.06940938532352448
-0.0757613405585289
-0.04154545068740845
0.028881482779979706
0.033491965383291245
-0.028517745435237885
0.026658140122890472
0.06545639783143997
0.015436439774930477
-0.011348997242748737
-0.027756407856941223
-0.06153901293873787
-0.04590820521116257
-0.048728108406066895
-0.062477171421051025
-0.03127724304795265
-0.06357087194919586
-0.0544821061193943
-0.016758909448981285
-0.06019403412938118
-0.04292650148272514
-0.028920838609337807
-0.017031189054250717
-0.03671378642320633
-0.07800418883562088
-0.03406171873211861
-0.03858888894319534
-0.05677327141165733
-0.07389877736568451
-0.06206212565302849
-0.04767058417201042
-0.03155381977558136
-0.03008906915783882
-0.017409419640898705
-0.019053859636187553
0.05082075297832489
0.030550019815564156
-0.007298700511455536
-0.0510454885661602
-0.06312234699726105
-0.07677560299634933
-0.04805702716112137
-0.012492619454860687
-0.04029614105820656
-0.06770184636116028
-0.06753142923116684
-0.05794777348637581
-0.05085209757089615
-0.011222266592085361
-0.01290189940482378
-0.011319722980260849
-0.014469108544290066
-0.0658469945192337
-0.09659473598003387
-0.03631960228085518
-0.05714572221040726
-0.06345149129629135
-0.0022674568463116884
-0.07453940063714981
0.024357695132493973
0.01709861494600773
0.008376454003155231
0.02512240968644619
0.0805443674325943
-0.008684661239385605
0.015695108100771904
-0.021727601066231728
-0.1025131344795227
-0.08959648758172989
-0.057719770818948746
-0.02077932097017765
-0.06089235842227936
-0.045552268624305725
-0.05807960778474808
-0.03650696575641632
-0.07723475247621536
-0.09607164561748505
-0.07640492916107178
-0.029284091666340828
-0.07757032662630081
-0.0432654432952404
-0.07660191506147385
-0.09747639298439026
-0.08576079457998276
-0.030932147055864334
-0.03252706304192543
0.08422689139842987
-0.0025059538893401623
-0.001973876031115651
-0.014367086812853813
0.0016015471192076802
-0.013246136717498302
-0.05854956805706024
-0.08275428414344788
-0.008888907730579376
-0.07239819318056107
-0.1058620736002922
-0.0839136615395546
-0.010356736369431019
-0.02030128613114357
-0.05390418693423271
-0.0586518719792366
-0.07456101477146149
-0.03437592089176178
-0.05997597426176071
-0.058823440223932266
-0.019641609862446785
-0.043007221072912216
-0.06611364334821701
-0.04705042392015457
-0.09649664908647537
-0.07107624411582947
-0.049310918897390366
-0.0024809904862195253
0.07273044437170029
-0.01046469435095787
-0.016590408980846405
-0.023661943152546883
0.03402509540319443
-0.012924816459417343
-0.06942220777273178
-0.02331959269940853
-0.05684142932295799
-0.05287211015820503
-0.042430512607097626
-0.06587875634431839
-0.020449567586183548
-0.027948325499892235
-0.0716606006026268
-0.0716070905327797
-0.033619705587625504
-0.05343654379248619
-0.07803472876548767
-0.06300895661115646
-0.03474096581339836
-0.013510333374142647
-0.03387707099318504
-0.04394051432609558
-0.05867661535739899
-0.06045903265476227
-0.023531610146164894
-0.01235460676252842
0.019097991287708282
-0.07727822661399841
-0.02316058985888958
-0.008401002734899521
0.026769328862428665
0.01040493231266737
-0.09125634282827377
-0.10049048811197281
-0.04346977919340134
-0.02019570767879486
-0.07510509341955185
-0.09521225839853287
-0.07083538919687271
-0.10008767247200012
-0.044684477150440216
-0.07056518644094467
-0.08831516653299332
-0.050554193556308746
-0.08351177722215652
-0.06012332811951637
-0.050739169120788574
-0.01634957268834114
-0.0671628788113594
-0.012070778757333755
-0.06477648764848709
-0.059506356716156006
-0.03636996075510979
-0.06903192400932312
-0.02143784612417221
-0.08840736746788025
0.021041253581643105
-0.004076664336025715
-0.018449362367391586
-0.005531677510589361
-0.07384178042411804
-0.08346454799175262
-0.04569097235798836
-0.02578680031001568
-0.044480081647634506
-0.03941316530108452
-0.06997961550951004
-0.06907113641500473
-0.015166356228291988
-0.018982211127877235
-0.10091760009527206
-0.10203949362039566
-0.08940958231687546
-0.06779458373785019
-0.05002997815608978
-0.06468145549297333
-0.036306194961071014
-0.028277406468987465
-0.06695371866226196
-0.017838163301348686
-0.05303448438644409
-0.07771642506122589
-0.047041114419698715
-0.028455965220928192
-0.04651685059070587
0.015520837157964706
0.019825348630547523
0.010475785471498966
-0.025588763877749443
-0.07183344662189484
-0.08173356205224991
-0.06693054735660553
-0.03391653299331665
-0.015392215922474861
-0.07020216435194016
-0.04603799059987068
-0.03919218108057976
-0.011873185634613037
-0.05916541814804077
-0.07458499819040298
-0.07958098500967026
-0.05435230955481529
-0.07141243666410446
-0.010978059843182564
-0.04969744011759758
-0.008918981067836285
-0.009212705306708813
-0.08047855645418167
-0.08003245294094086
-0.04106779024004936
-0.0404706671833992
-0.07190058380365372
-0.03838679939508438
-0.022077275440096855
0.004782885313034058
0.019155239686369896
-0.05153700336813927
-0.06283790618181229
-0.021457720547914505
-0.0909709483385086
-0.09129507094621658
-0.09066753089427948
-0.0968661978840828
-0.07044430822134018
-0.03272834047675133
-0.07651869207620621
-0.05460061877965927
-0.04338223859667778
-0.041294656693935394
-0.0669291615486145
-0.036709826439619064
-0.05135364085435867
-0.032893866300582886
-0.04347993806004524
-0.034011196345090866
-0.0364120788872242
-0.03205230087041855
-0.01220220047980547
-0.03242691978812218
-0.06845375150442123
-0.05242481827735901
-0.01816924288868904
-0.009850102476775646
-0.071250319480896
-0.05785432085394859
-0.0663105696439743
-0.04666566476225853
-0.09285470098257065
-0.08989813923835754
-0.06571231037378311
-0.09897132962942123
-0.0664324015378952
-0.063677117228508
-0.04722076281905174
-0.0833946242928505
-0.09778821468353271
-0.037714045494794846
-0.05850633606314659
-0.09235350787639618
-0.023598823696374893
-0.029737558215856552
-0.058113787323236465
-0.039789509028196335
-0.04327935725450516
-0.06839720904827118
-0.06868498772382736
-0.07082246243953705
0.026358792558312416
-0.007838288322091103
0.024082733318209648
0.014594453386962414
-0.0728658065199852
-0.02749498188495636
-0.05259690433740616
-0.009326637722551823
-0.03650480508804321
-0.08886659145355225
-0.07512935250997543
-0.08421451598405838
-0.08760824054479599
-0.06999903917312622
-0.03783369064331055
-0.06844506412744522
-0.10046062618494034
-0.07542218267917633
-0.07276750355958939
-0.04214530438184738
-0.040121499449014664
-0.08099795877933502
-0.02640656568109989
-0.05069345608353615
-0.06811104714870453
-0.06828159838914871
-0.08549368381500244
-0.07945559173822403
-0.040476664900779724
0.014192236587405205
0.03470718860626221
0.009653589688241482
-0.06421468406915665
-0.07747980207204819
-0.07757798582315445
-0.06550426036119461
-0.07488399744033813
-0.09332071989774704
-0.07235986739397049
-0.09613960236310959
-0.03825229033827782
-0.07558979839086533
-0.05853438377380371
-0.0710083544254303
-0.03894537687301636
-0.03599800541996956
-0.04304082691669464
-0.048233725130558014
-0.0947827696800232
-0.03663680702447891
-0.017111264169216156
-0.055457230657339096
-0.04090606048703194
-0.0429561510682106
-0.06519406288862228
-0.08659467846155167
-0.046736329793930054
-0.025541378185153008
-0.0025470086839050055
0.030335620045661926
0.0076173716224730015
-0.026346543803811073
-0.08382467180490494
-0.09634719789028168
-0.10089199244976044
-0.06557213515043259
-0.0764181911945343
-0.04291112720966339
-0.045165713876485825
-0.03271056339144707
-0.06868169456720352
-0.05598850175738335
-0.06519098579883575
-0.09125089645385742
-0.09424277395009995
-0.05453471094369888
-0.10085639357566833
-0.01572963409125805
-0.03485332429409027
-0.06352124363183975
-0.10360879451036453
-0.044195182621479034
-0.05076802149415016
-0.027980588376522064
-0.004241977818310261
-0.02884191833436489
-0.009856697171926498
-0.029254842549562454
-0.03921565040946007
-0.05285359546542168
-0.04859175160527229
-0.015136475674808025
-0.043577227741479874
-0.02394232526421547
-0.022350456565618515
-0.012326980009675026
-0.06256552785634995
-0.03813973069190979
-0.039938196539878845
-0.0743829682469368
-0.07906057685613632
-0.03430021181702614
-0.04482624679803848
-0.051094990223646164
-0.013554763980209827
-0.06100280582904816
-0.029432058334350586
-0.07182011008262634
-0.07511782646179199
-0.026723584160208702
-0.07026631385087967
-0.054626982659101486
-0.024382179602980614
0.012379063293337822
-0.028544172644615173
-0.011815262958407402
-0.02112054079771042
-0.018860185518860817
-0.02688838541507721
-0.003193371696397662
-0.04279567673802376
-0.024243652820587158
-0.03799768164753914
-0.0517103485763073
-0.05167078226804733
-0.04918597266077995
-0.058862823992967606
-0.0441405326128006
-0.038034457713365555
-0.028485877439379692
-0.05317116528749466
-0.025645587593317032
-0.04711201414465904
-0.05158176273107529
-0.047846898436546326
-0.0590159110724926
-0.015991557389497757
-0.055373016744852066
-0.0027879776898771524
0.034391000866889954
-0.018972355872392654
0.025093140080571175
-0.019795119762420654
0.02968463860452175
-0.06898020952939987
-0.02919892966747284
-0.06390278041362762
0.007711255922913551
-0.00304929306730628
-0.026334473863244057
-0.05430503189563751
-0.021156543865799904
-0.05570041015744209
-0.04414975643157959
-0.0545792356133461
-0.0750407949090004
-0.026266423985362053
-0.041769202798604965
-0.057897984981536865
-0.01617630012333393
-0.004032059572637081
-0.04094920679926872
-0.021801630035042763
-0.02956881746649742
-0.029091959819197655
0.04128016158938408
0.026059044525027275
-0.011400921270251274
0.027525370940566063
-0.015026429668068886
0.01482781395316124
0.02893647737801075
-0.03529839217662811
0.03368574380874634
0.014666647650301456
0.07370004057884216
0.07221192121505737
0.04225519299507141
-0.030500466004014015
-0.07062064111232758
-0.07643712311983109
-0.049667902290821075
-0.024520302191376686
-0.05513327568769455
-0.038372185081243515
-0.050694093108177185
-0.021193446591496468
-0.04395342618227005
-0.044015344232320786
0.031391605734825134
0.021920882165431976
0.04425569996237755
-0.034305550158023834
0.022653933614492416
0.02117665484547615
-0.0007375095738098025
0.011531132273375988
0.029161855578422546
0.010837308131158352
-0.030930358916521072
-0.009171396493911743
0.029867935925722122
0.022070081904530525
0.006594913545995951
-0.0006060557789169252
-0.061694901436567307
-0.03340114653110504
-0.07196222990751266
-0.10030140727758408
-0.029696961864829063
-0.032189153134822845
-0.021488131955266
-0.06973875313997269
-0.08101743459701538
-0.09431697428226471
-0.05210496485233307
-0.10215269029140472
0.006900305859744549
-0.006634384859353304
0.015932459384202957
0.01769798994064331
-0.005089615471661091
-0.0114601980894804
-0.0027292626909911633
-0.020698778331279755
-0.007329498417675495
-0.02901981770992279
-0.016155291348695755
0.004759895149618387
-0.012830185703933239
0.03412536531686783
-0.01500162947922945
-0.0735902339220047
-0.06604310125112534
-0.05236970633268356
-0.10369282215833664
-0.10350999981164932
-0.020047126337885857
-0.056661032140254974
-0.03805220127105713
-0.04664146900177002
-0.03306514024734497
-0.05839317664504051
-0.0567096583545208
0.05723254010081291
0.08186468482017517
0.0005879743257537484
-0.010953737422823906
0.03420029208064079
-0.020298298448324203
0.030277499929070473
0.025340570136904716
0.01633654348552227
0.023340869694948196
0.0061841183342039585
-0.030077343806624413
0.008734596893191338
0.020186668261885643
-0.011368121951818466
-0.004001868888735771
0.011642035096883774
0.024570239707827568
-0.014650622382760048
0.021559538319706917
0.010006952099502087
0.01645505428314209
-0.008511820808053017
-0.01109994761645794
-0.028699416667222977
-0.028879273682832718
-0.012990381568670273
0.0032312190160155296
0.02500840649008751
-0.025202305987477303
-0.005182956345379353
0.013934800401329994
-0.026373693719506264
-0.00800098292529583
-0.033655326813459396
0.03175044804811478
0.02321104146540165
-0.00402876315638423
-0.012704381719231606
-0.00032649721833877265
0.0055197011679410934
0.025930244475603104
-0.016590740531682968
-0.025298690423369408
0.029522977769374847
-0.029339637607336044
0.07228031009435654
0.05038170516490936
-0.057411208748817444
-0.06702008098363876
-0.058644555509090424
0.08925648778676987
-0.004369140136986971
-0.01921773888170719
-0.02583938091993332
-0.039827730506658554
-0.08342364430427551
-0.023645993322134018
-0.03348620980978012
-0.057190753519535065
-0.0356355682015419
-0.00893257837742567
-0.02964092791080475
0.03478294610977173
0.013271702453494072
-0.014315844513475895
0.03346427530050278
-0.005927635356783867
-0.02807733044028282
-0.028118440881371498
-0.02576029859483242
0.022231796756386757
-0.02844623662531376
-0.06724527478218079
-0.025774357840418816
-0.07756206393241882
-0.10968050360679626
-0.11168644577264786
-0.045994747430086136
-0.08206340670585632
-0.07559656351804733
0.020571507513523102
0.04211319610476494
0.026595601812005043
0.0038210181519389153
-0.008153735660016537
-0.020177219063043594
0.012826461344957352
-0.07868737727403641
-0.01790446974337101
-0.008862240239977837
-0.015267815440893173
-0.02701706252992153
0.011708613485097885
0.0020059391390532255
-0.035244088619947433
0.013495216146111488
0.0038673283997923136
-0.07676402479410172
-0.10078742355108261
-0.02591727115213871
-0.0070893727242946625
1.295926995226182e-05
-0.07158675044775009
-0.029823698103427887
-0.01999025233089924
-0.023210015147924423
-0.04609335586428642
-0.02423580177128315
-0.050045501440763474
-0.035250891000032425
0.022781051695346832
0.023807233199477196
-0.0050237360410392284
-0.036478228867053986
-0.05533013120293617
-0.08732978999614716
-0.036901455372571945
0.02869977429509163
-0.026664432138204575
0.021593384444713593
-0.0073298560455441475
0.025935502722859383
-0.030372893437743187
0.0010333487298339605
0.002084919484332204
-0.06463700532913208
-0.009192356839776039
-0.028207043185830116
-0.019836409017443657
-0.026441499590873718
-0.05763896554708481
-0.04844203218817711
-0.05472896993160248
-0.07526702433824539
-0.04097653180360794
-0.02823183685541153
-0.030272966250777245
-0.018998928368091583
-0.012672532349824905
-0.0333050861954689
0.0013995704939588904
-0.07118519395589828
0.001321998774074018
-0.059308916330337524
-0.11715056747198105
-0.012719403952360153
-0.00865129567682743
-0.0016827371437102556
0.010434943251311779
-0.022546585649251938
0.015656573697924614
0.023402411490678787
0.032653581351041794
-0.09136504679918289
-0.04502708837389946
-0.02465125359594822
-0.05704452097415924
-0.09466520696878433
-0.09585501253604889
-0.0794033631682396
-0.08452033996582031
-0.030942657962441444
-0.081882543861866
-0.0634218156337738
-0.039367057383060455
-0.06428972631692886
-0.05032960698008537
-0.008406439796090126
-0.03934379294514656
-0.08416248857975006
-0.09507381170988083
-0.051735635846853256
-0.08410188555717468
0.05047594755887985
-0.012280289083719254
0.02529720403254032
-0.0034347986802458763
0.010389992967247963
0.017195403575897217
-0.024509551003575325
-0.04029735177755356
-0.07592683285474777
-0.05019664764404297
-0.06376993656158447
-0.06371771544218063
-0.037308111786842346
-0.11211525648832321
-0.08670224249362946
-0.10776914656162262
-0.04408619552850723
-0.05021710321307182
-0.03310314565896988
-0.0969831719994545
-0.02940146066248417
-0.005523251835256815
-0.020135071128606796
-0.05406814441084862
-0.044667843729257584
-0.09241216629743576
-0.12947699427604675
-0.10764655470848083
-0.1296297162771225
-0.01840941794216633
-0.0195819940418005
-0.04802290350198746
-0.03322180360555649
0.004431924782693386
-0.031408533453941345
-0.08994249999523163
-0.030300918966531754
-0.07473218441009521
-0.03089556284248829
-0.06871586292982101
-0.03884360194206238
-0.09595633298158646
-0.07508958876132965
-0.1007361188530922
-0.08983165770769119
-0.06224782392382622
-0.023306021466851234
-0.03689340129494667
-0.02284064143896103
0.0018798651872202754
-0.010984420776367188
-0.02044912986457348
-0.0959029570221901
-0.08590668439865112
-0.13290157914161682
-0.11739949882030487
-0.08660244941711426
-0.09401582181453705
-0.1274423748254776
-0.06820517778396606
0.0022504287771880627
-0.029264476150274277
-0.04858434200286865
0.017359251156449318
-0.06384529173374176
-0.10409217327833176
-0.1106095239520073
-0.053729861974716187
-0.10319036990404129
-0.09607107937335968
-0.11452418565750122
-0.04374416545033455
-0.041390903294086456
-0.06621294468641281
-0.04516035318374634
-0.027706649154424667
-0.009866181761026382
-0.03772490844130516
-0.06642788648605347
-0.024868087843060493
-0.08746130019426346
-0.1241726279258728
-0.13202637434005737
-0.10939971357584
-0.092338427901268
-0.0502319410443306
-0.07854576408863068
-0.033230703324079514
0.08622666448354721
0.026931922882795334
0.03783942013978958
-0.03232009708881378
-0.05403028056025505
-0.09695941209793091
-0.10001935064792633
-0.06370621919631958
-0.06912872195243835
-0.09910939633846283
-0.06987445801496506
-0.05500912666320801
-0.05678728595376015
0.002132570603862405
0.0026079595554620028
0.01763334684073925
-0.006071952171623707
0.010378611274063587
-0.026312995702028275
-0.06865314394235611
-0.1074257418513298
-0.078030526638031
-0.10148420184850693
-0.07407024502754211
-0.10238070785999298
0.045440927147865295
-0.11486425250768661
-0.02486240491271019
0.050398096442222595
0.060449257493019104
0.039251990616321564
-0.04837002977728844
-0.014654424041509628
-0.06769241392612457
-0.04717021435499191
-0.06850924342870712
-0.0590997152030468
-0.053267478942871094
-0.04122380167245865
-0.07827366143465042
-0.03877820819616318
-0.0026103726122528315
-0.03454495593905449
0.006703458726406097
0.013029264286160469
-0.02188841812312603
-0.035787686705589294
-0.02614625357091427
-0.12160708755254745
-0.10020211338996887
-0.1092541515827179
-0.06784657388925552
-0.037391822785139084
-0.025061264634132385
-0.08374717831611633
-0.008597949519753456
0.0658745989203453
0.018856709823012352
0.09046898782253265
-0.07211560755968094
-0.0018406122690066695
-0.034819748252630234
-0.060946132987737656
-0.02865278162062168
-0.05166318267583847
-0.09592024981975555
-0.07252733409404755
-0.06586238741874695
-0.03588449954986572
-0.04402659460902214
-0.01055270154029131
0.028046831488609314
-0.008810781873762608
0.0027444062288850546
-0.028632044792175293
-0.03413628786802292
-0.08568538725376129
-0.06566889584064484
-0.10133064538240433
-0.045764438807964325
-0.01064395997673273
0.06629198789596558
-0.04928327724337578
-0.01639547199010849
0.032784052193164825
0.010155810043215752
0.05306685343384743
-0.07486897706985474
0.0004294031532481313
-0.06281936913728714
-0.06801898032426834
-0.050387848168611526
-0.049785178154706955
-0.09241873770952225
-0.09257745742797852
-0.10303595662117004
-0.05173106864094734
-0.04178136959671974
-0.013497126288712025
0.004181853029876947
0.01061927992850542
-0.029798150062561035
-0.008768659085035324
-0.088374063372612
-0.06326121091842651
-0.11923061311244965
-0.06564120203256607
-0.0563480481505394
-0.04447750374674797
-0.01839090883731842
-0.08683284372091293
0.030578691512346268
-0.03256333991885185
-0.008914879523217678
-0.01600748673081398
-0.05374294891953468
-0.04150431603193283
-0.052715905010700226
-0.06669528782367706
-0.041093192994594574
-0.08120587468147278
-0.04617708921432495
-0.06342292577028275
-0.06914155185222626
-0.022854415699839592
-0.033686332404613495
-0.024381784722208977
0.02709137462079525
0.0056272270157933235
-0.014269416220486164
-0.028322692960500717
-0.05604955926537514
-0.10511811077594757
-0.10072216391563416
-0.0941580981016159
-0.09628935158252716
-0.03265700861811638
-0.0843878984451294
0.07371047139167786
0.00294683245010674
-0.0018579578027129173
-0.06286639720201492
0.006445582490414381
0.044319573789834976
-0.07716546207666397
-0.08977723866701126
-0.0730867087841034
-0.05411211773753166
-0.016285933554172516
-0.06906741112470627
-0.025946402922272682
-0.04740256816148758
-0.019110115244984627
0.005587377119809389
-0.012709466740489006
0.029192140325903893
-0.00248133298009634
-0.007276761811226606
-0.031128494068980217
-0.04509276524186134
-0.11354253441095352
-0.1017649918794632
-0.11230428516864777
-0.07120449841022491
-0.06403259187936783
-0.03543519228696823
0.08379272371530533
0.020308775827288628
-0.012841770425438881
0.02330786921083927
0.0880662277340889
0.07814176380634308
-0.03970230370759964
-0.059824734926223755
-0.058104559779167175
-0.0364425852894783
-0.06659445911645889
-0.03753838688135147
-0.011359695345163345
-0.040967073291540146
0.002923964522778988
0.032157640904188156
-0.014481470920145512
-0.021517472341656685
-0.051489852368831635
-0.056366924196481705
-0.03281354904174805
-0.05951951816678047
-0.08376272767782211
-0.10501409322023392
-0.11057921499013901
-0.04441695660352707
-0.09557465463876724
-0.04471670463681221
-0.021845830604434013
-0.056230753660202026
0.020810136571526527
-0.023632386699318886
-0.010499218478798866
-0.017641892656683922
-0.11980042606592178
-0.1283172219991684
-0.02349703013896942
-0.05908079072833061
-0.06250037252902985
-0.059670399874448776
-0.03840124234557152
-0.0005278299213387072
0.03195784240961075
0.06198395416140556
0.05046514794230461
0.010706711560487747
-0.04715878888964653
-0.048141784965991974
-0.0785037949681282
-0.0710667297244072
-0.06765579432249069
-0.08771362900733948
-0.08227397501468658
-0.057068876922130585
-0.06811019778251648
-0.0488908514380455
-0.03390192985534668
-0.07411541789770126
0.0317448228597641
0.027983032166957855
-0.00623468030244112
-0.03311609476804733
-0.032293517142534256
-0.07342416793107986
-0.040329884737730026
-0.053730811923742294
-0.024583924561738968
-0.062171291559934616
-0.02768002636730671
-0.061540354043245316
0.002839763881638646
0.01960115134716034
0.006732954643666744
-0.015410159714519978
-0.011704571545124054
-0.06054839491844177
-0.03400667756795883
-0.04725208133459091
-0.057436101138591766
-0.07395588606595993
-0.0800553634762764
-0.07045169919729233
-0.027605576440691948
-0.07994000613689423
-0.010126377455890179
-0.062487080693244934
-0.022268109023571014
-0.002370425732806325
-0.05160750076174736
-0.08477312326431274
-0.12123055756092072
-0.08770843595266342
-0.015996398404240608
-0.012777838855981827
-0.075295589864254
-0.04466906934976578
-0.06386034935712814
-0.05498217046260834
0.011301509104669094
-0.011447109282016754
0.012497846968472004
-0.03760708495974541
-0.0482008121907711
-0.011293639428913593
-0.09141498804092407
-0.08358579874038696
-0.07501151412725449
-0.05440624803304672
-0.06931906938552856
-0.05386080592870712
-0.06201423332095146
-0.07015975564718246
0.060488082468509674
0.03368232771754265
0.025448383763432503
0.028688078746199608
-0.1018654853105545
-0.10440819710493088
-0.11091174185276031
-0.075721874833107
-0.07752984017133713
-0.042849693447351456
-0.03533845394849777
-0.06579913198947906
-0.07023945450782776
-0.04066934809088707
0.007930980063974857
-0.02606855146586895
-0.004892444238066673
-0.006942290812730789
-0.04630667716264725
-0.0432429164648056
-0.06879609823226929
-0.08427680283784866
-0.08320949971675873
-0.0947682112455368
-0.04463660717010498
-0.07469277083873749
-0.10175346583127975
-0.03962041810154915
-0.059320125728845596
0.03169208765029907
-0.031741395592689514
-0.011597863398492336
-0.0741058737039566
-0.040100034326314926
-0.06640210747718811
-0.044542163610458374
-0.055553656071424484
-0.032228440046310425
-0.019429102540016174
-0.026790723204612732
-0.01960628107190132
-0.016035517677664757
-0.02163006365299225
-0.007430305238813162
-0.0576813742518425
-0.009672832675278187
-0.06822913885116577
-0.019788574427366257
-0.09500914812088013
-0.05700742453336716
-0.03800472617149353
-0.09622731804847717
-0.07416941970586777
-0.11138024926185608
-0.11362011730670929
-0.07932636141777039
-0.09032105654478073
0.02301662787795067
0.028568819165229797
-0.013165393844246864
-0.03456389904022217
-0.05503181740641594
-0.05054374784231186
-0.08148185163736343
-0.09288275241851807
-0.03773076832294464
-0.06459517031908035
-0.057556506246328354
-0.03956735134124756
-0.016632527112960815
-0.02896290086209774
-0.006997850723564625
-0.019984755665063858
-0.06280935555696487
-0.07739772647619247
-0.08887547999620438
-0.06258818507194519
-0.09057185053825378
-0.08212660998106003
-0.07941590994596481
-0.0556931272149086
-0.08385016024112701
-0.07062364369630814
-0.06722135096788406
-0.060886431485414505
-0.00788409449160099
-0.011005938984453678
-0.0356314443051815
0.01016861479729414
-0.11319253593683243
-0.06713935732841492
-0.057652249932289124
-0.06602872163057327
-0.07657887041568756
-0.04320472851395607
-0.06348444521427155
-0.06490923464298248
-0.004304074216634035
-0.0648714229464531
-0.09476808458566666
-0.03830340877175331
0.00010430178372189403
-0.015891656279563904
-0.02504115179181099
-0.04620659723877907
-0.0954844057559967
-0.08400049060583115
-0.032887302339076996
-0.0402047336101532
-0.05295015871524811
-0.02101757936179638
-0.05919488146901131
0.026237841695547104
-0.02677530236542225
-0.019713900983333588
0.028374511748552322
-0.04698605462908745
-0.06651169061660767
-0.06177584081888199
-0.08948856592178345
-0.05051344633102417
-0.04300448298454285
-0.06936870515346527
-0.04238515347242355
-0.0743284821510315
-0.03531230613589287
-0.11416098475456238
-0.1055038794875145
-0.010053998790681362
-0.008429753594100475
-0.010575960390269756
-0.03855825960636139
-0.08034287393093109
-0.046585917472839355
-0.040472693741321564
-0.05605025961995125
-0.027962613850831985
-0.06609679013490677
-0.07451874017715454
0.03627101331949234
-0.023711180314421654
-0.011017033830285072
0.028929617255926132
0.0011487561278045177
-0.022996097803115845
-0.06428886950016022
-0.04446478188037872
-0.0726671814918518
-0.09073399752378464
-0.046831801533699036
-0.02467246726155281
-0.09726547449827194
-0.0831473097205162
-0.07452432811260223
-0.04442582279443741
-0.06090516969561577
-0.03521168231964111
-0.003985820338129997
-0.02948765642940998
-0.0008895734208635986
-0.07995571196079254
-0.051956646144390106
-0.017106371000409126
-0.05209195613861084
-0.03011413849890232
-0.07092077285051346
-0.04046042263507843
0.0865413025021553
0.012706330977380276
-0.026036765426397324
0.02371194213628769
0.02595270611345768
-0.017084646970033646
0.0265132375061512
-0.054855503141880035
-0.07022826373577118
-0.08199549466371536
-0.11117293685674667
-0.05286769941449165
-0.058885764330625534
-0.0925004631280899
-0.03075619600713253
-0.04597196355462074
0.049034904688596725
0.05048099905252457
0.007768336217850447
-0.022401217371225357
0.08005999028682709
0.0027163387276232243
-0.004237827379256487
0.03736303001642227
-0.0543697364628315
-0.04178375378251076
-0.07068480551242828
-0.07334516197443008
0.021874016150832176
-0.010847662575542927
0.02996276691555977
0.02724001742899418
-0.035512443631887436
-0.03101957030594349
0.034296851605176926
0.015923624858260155
0.0846819207072258
0.021578507497906685
0.002998780459165573
0.015299779362976551
-0.08833891153335571
-0.12277744710445404
-0.04599327594041824
0.011315272189676762
0.04750780388712883
0.05715430527925491
0.004669491201639175
0.04899021238088608
0.12446212768554688
-0.023639753460884094
0.017901906743645668
0.008990720845758915
-0.03748692572116852
-0.007914790883660316
0.018239200115203857
0.0297880657017231
0.019996967166662216
-0.011697391048073769
0.008466031402349472
-0.00721372477710247
0.020375598222017288
0.015445577912032604
-0.022718163207173347
0.016716843470931053
-0.025222482159733772
0.0407458133995533
0.05098579451441765
0.07608161121606827
0.08194732666015625
0.013352759182453156
-0.03754965215921402
-0.022764313966035843
-0.03390956670045853
-0.025451043620705605
-0.01293355692178011
-0.022389568388462067
0.02184569090604782
0.05836959183216095
0.05732119455933571
-0.031060419976711273
-0.0023761861957609653
0.013083411380648613
0.01941118948161602
-0.0008552117506042123
0.009498885832726955
-0.009690378792583942
-0.02927236258983612
0.030136944726109505
0.006876145489513874
-0.02670804224908352
-0.02446226216852665
-0.017072077840566635
-0.005329332314431667
0.029899857938289642
-0.01799730770289898
-0.017252450808882713
-0.000897590653039515
0.005277242045849562
-0.00470370939001441
-0.014691579155623913
-0.021983377635478973
-0.02448057010769844
0.013251028023660183
0.013682033866643906
-0.006231972482055426
-0.010986311361193657
0.002009958028793335
-0.009960737079381943
0.01925523951649666
0.005324095953255892
0.011520739644765854
0.030573777854442596
-0.023600630462169647
-0.03130219131708145
0.012488366104662418
-0.02518368698656559
0.033162787556648254
-0.025540536269545555
-0.02617665007710457
-8.053439523791894e-05
0.018065620213747025
-0.006907659117132425
0.008428284898400307
-0.05763090029358864
-0.03134893625974655
-0.07908940315246582
-0.025822721421718597
-0.02652072161436081
-0.031419944018125534
0.025543328374624252
-0.09232217818498611
-0.044513553380966187
-0.09553283452987671
-0.09037521481513977
0.004601874854415655
0.004065496847033501
0.015371923334896564
-0.0035785394720733166
-0.03249892592430115
-0.01537700742483139
0.019027795642614365
0.003980125766247511
0.012470250017940998
-0.03340615704655647
-0.02745509333908558
0.019310956820845604
0.01579897478222847
-0.029040474444627762
0.00735840667039156
-0.012004724703729153
0.020451154559850693
-0.021031903102993965
-0.0960659608244896
-0.08418362587690353
-0.07907609641551971
-0.06228052079677582
-0.07129286974668503
-0.070055291056633
0.01337659452110529
-0.03690905123949051
-0.01393798366189003
-0.003869206877425313
-0.041101373732089996
-0.03603316470980644
0.015270395204424858
0.02809794992208481
-0.011415512301027775
0.0035886894911527634
-0.010162984021008015
-0.009704530239105225
0.0020395859610289335
0.02092663384974003
-0.012089435942471027
-0.024710260331630707
0.022878145799040794
-0.0461503341794014
-0.04614565894007683
-0.08714086562395096
-0.07375417649745941
-0.08657383918762207
-0.05235838517546654
-0.07308431714773178
-0.016773872077465057
-0.0369122214615345
-0.05140114203095436
-0.04970544949173927
-0.04276539757847786
-0.05559639632701874
-0.015860717743635178
0.040547821670770645
-0.07356805354356766
-0.1116584837436676
-0.08889950066804886
0.04857513681054115
0.09025266766548157
-0.006489238701760769
-0.011750553734600544
0.02273576706647873
-0.016017306596040726
-0.01956329308450222
-0.03160062059760094
0.009956705383956432
-0.01411362737417221
0.005976932588964701
-0.08650638908147812
-0.03380357474088669
-0.10746724903583527
0.011113500222563744
-0.02582514099776745
-0.015632756054401398
-0.011022558435797691
-0.05209702253341675
-0.030270610004663467
0.008678970858454704
-0.006844690069556236
-0.054664596915245056
-0.00974141713231802
-0.01570688560605049
-0.01631583273410797
-0.07224573940038681
-0.03499208390712738
-0.08217127621173859
-0.09277088195085526
-0.08584022521972656
0.03210053592920303
0.012891399674117565
-0.0029063012916594744
-0.023761672899127007
-0.01123273465782404
-0.02915813773870468
0.08155747503042221
-0.02073393389582634
-0.03825893625617027
-0.0025018949527293444
0.001248084125109017
-0.05658584088087082
-0.055814024060964584
-0.06512291729450226
-0.044163841754198074
-0.021284781396389008
-0.028232287615537643
-0.04615034908056259
-0.06350825726985931
-0.08021865785121918
-0.03777056932449341
-0.035858217626810074
-0.06101582199335098
-0.07699843496084213
-0.08778172731399536
-0.07452967017889023
-0.05639582499861717
0.04016643762588501
0.07589637488126755
-0.08786914497613907
-0.021292734891176224
0.002419799566268921
0.013212728314101696
-0.028178617358207703
-0.07733573764562607
-0.07016131281852722
-0.056053221225738525
-0.026921330019831657
-0.02192918211221695
-0.000744472723454237
-0.039717648178339005
-0.04298396036028862
-0.04655567556619644
-0.034719716757535934
-0.08243468403816223
-0.054847657680511475
-0.047216203063726425
-0.10507940500974655
-0.027853406965732574
-0.024509720504283905
-0.04026949033141136
-0.07171337306499481
-0.05929294228553772
-0.08694487065076828
-0.04781080409884453
-0.08387588709592819
-0.07529416680335999
-0.031627245247364044
-0.07679439336061478
0.03054763749241829
-0.03399164602160454
0.020685870200395584
-0.07353796064853668
-0.10271990299224854
-0.006124100182205439
0.005746317561715841
-0.023173894733190536
-0.0959850549697876
-0.05265028402209282
-0.10010826587677002
-0.09510450065135956
-0.08329856395721436
-0.08943174034357071
-0.03710675239562988
-0.07654286175966263
-0.044612620025873184
-0.0391855388879776
-0.05657258257269859
-0.08282545208930969
-0.07082182914018631
-0.05655134841799736
-0.08056751638650894
-0.07356121391057968
-0.06484892964363098
-0.048978179693222046
-0.05949460342526436
-0.0921553298830986
-0.01659647934138775
0.023641927167773247
0.06705591082572937
-0.0966668576002121
-0.04596896842122078
0.0049967290833592415
0.0007316868868656456
-0.0943167433142662
-0.07579949498176575
-0.0720817893743515
-0.07781314104795456
-0.10171619057655334
-0.07657083123922348
-0.06800416857004166
-0.038730520755052567
-0.08937441557645798
-0.05961034074425697
-0.011253613978624344
-0.04311132803559303
-0.06598223745822906
-0.05810842290520668
-0.09494426101446152
-0.06580426543951035
-0.05814070254564285
-0.07981594651937485
-0.06797072291374207
-0.045912280678749084
-0.03308092802762985
0.009300947189331055
0.00671416986733675
0.0351133793592453
0.026783276349306107
0.08307097852230072
0.005226426292210817
-0.046759508550167084
-0.054943814873695374
-0.05972536280751228
-0.03110775351524353
-0.08045932650566101
-0.07126548141241074
-0.07525843381881714
-0.06743451207876205
-0.09822367876768112
-0.07091743499040604
-0.00736969755962491
-0.06533218175172806
-0.041546620428562164
-0.03974657505750656
-0.057418812066316605
-0.05551064759492874
-0.06150636821985245
-0.08658835291862488
-0.09979449957609177
-0.043717097491025925
-0.012610355392098427
-0.026655007153749466
-0.020550919696688652
-0.017582204192876816
0.07576102018356323
0.02413323149085045
0.03518584743142128
-0.013245138339698315
-0.05779372528195381
-0.07212717086076736
-0.050174813717603683
-0.07585172355175018
-0.09492765367031097
-0.05299565941095352
-0.043139614164829254
-0.04170120134949684
-0.035868965089321136
-0.0523885041475296
-0.005645248107612133
-0.03576609864830971
-0.04473714530467987
-0.025162125006318092
-0.05154789239168167
-0.08119656145572662
-0.06152245029807091
-0.10088372975587845
-0.08437837660312653
-0.056581102311611176
-0.01332827191799879
-0.02888195961713791
0.010975195094943047
-0.00027782152756117284
0.033175937831401825
0.030334649607539177
0.03404100611805916
-0.030819956213235855
-0.05640358105301857
-0.007687421049922705
-0.06360043585300446
-0.0362359844148159
-0.10056666284799576
-0.03700488433241844
-0.07301463186740875
-0.045885518193244934
-0.07832673192024231
-0.06599930673837662
-0.07931488007307053
-0.07130501419305801
-0.05343242362141609
-0.01951787807047367
-0.086309514939785
-0.1006384789943695
-0.11768915504217148
-0.06587491929531097
-0.04799561947584152
-0.057930026203393936
0.024716081097722054
0.008982500992715359
0.022000731900334358
-0.01568676345050335
-0.016040926799178123
-0.03584130108356476
-0.0423160158097744
-0.01881904900074005
-0.04319960996508598
-0.0948072224855423
-0.053410958498716354
-0.10251225531101227
-0.056879907846450806
-0.08658989518880844
-0.06342674791812897
-0.08972407877445221
-0.03827381879091263
-0.0675276592373848
-0.058307770639657974
-0.07313454896211624
-0.007653691340237856
-0.05126624181866646
-0.016977844759821892
-0.05711398273706436
-0.09474565088748932
-0.07745559513568878
-0.08728969842195511
-0.08834574371576309
0.006207423750311136
0.032517220824956894
-0.010005406104028225
0.03386593610048294
-0.005552424117922783
-0.02782965824007988
-0.06712878495454788
-0.060564640909433365
-0.05624908581376076
-0.08059211075305939
-0.07223603129386902
-0.06013725325465202
-0.06913386285305023
-0.08289718627929688
-0.06725354492664337
-0.06840144097805023
-0.09268273413181305
-0.06231013312935829
-0.08987271040678024
-0.028119869530200958
-0.04434332624077797
0.0029190382920205593
-0.02339155040681362
-0.07323741167783737
-0.07367201149463654
-0.09140324592590332
-0.07436146587133408
-0.05858776718378067
-0.04688653722405434
-0.01522903423756361
-0.03229069709777832
-0.025725791230797768
-0.008730301633477211
-0.04093030467629433
-0.024666255339980125
-0.02353944070637226
-0.06286519765853882
-0.005417856387794018
-0.03174562379717827
-0.07377550005912781
-0.06331879645586014
-0.09107298403978348
-0.058568261563777924
-0.06941153854131699
-0.05239008739590645
-0.09646737575531006
-0.08661194890737534
-0.048686787486076355
-0.048735011368989944
-0.041207920759916306
-0.042872991412878036
-0.07746690511703491
-0.0772395208477974
-0.07004953175783157
-0.089151531457901
-0.04903954267501831
-0.07882169634103775
0.01181753259152174
0.030231140553951263
0.032551974058151245
0.08782252669334412
-0.006875001825392246
-0.04993749409914017
-0.10494445264339447
-0.023651299998164177
-0.013769534416496754
-0.006970296148210764
-0.06410182267427444
-0.03623424470424652
-0.07292629033327103
-0.022593824192881584
-0.08111918717622757
-0.11096545308828354
-0.043374426662921906
-0.0647793635725975
-0.023907586932182312
-0.02186640352010727
-0.003183856373652816
-0.026698868721723557
-0.08027961850166321
-0.11119551956653595
-0.1148202121257782
-0.08876404166221619
-0.07484320551156998
-0.05853549391031265
-0.08470915257930756
-0.027474915608763695
-0.0005302216741256416
0.07039029896259308
-0.030935892835259438
-0.06985891610383987
-0.08743061125278473
-0.0684940442442894
-0.07760271430015564
-0.0454707033932209
-0.015142514370381832
-0.05079857259988785
-0.017415707930922508
-0.05935467407107353
-0.0512155145406723
-0.05482703819870949
-0.03291599825024605
-0.032468389719724655
-0.04602240025997162
-0.01628582738339901
-0.04121788218617439
-0.02466742880642414
-0.030537188053131104
-0.05106312409043312
-0.0832691416144371
-0.06658975780010223
-0.05072841793298721
0.014963546767830849
-0.03696513548493385
0.001519671524874866
0.016000211238861084
-0.027998195961117744
-0.019285770133137703
-0.05870318040251732
-0.05883648619055748
-0.07368431240320206
-0.045310504734516144
-0.03419347479939461
-0.043772727251052856
-0.05620332434773445
-0.0658114030957222
-0.04911840334534645
-0.07331204414367676
-0.038070134818553925
-0.009585604071617126
-0.037026844918727875
-0.004240523092448711
-0.005599792115390301
-0.046309612691402435
-0.027918821200728416
-0.0040018800646066666
-0.03049219772219658
-0.04829200729727745
-0.036694951355457306
-0.009524224326014519
0.005023039411753416
-0.07229726016521454
-0.016983091831207275
0.012345136143267155
-0.05727338045835495
-0.06897761672735214
-0.0712340772151947
-0.09819887578487396
-0.03747798129916191
-0.051459088921546936
-0.06318677216768265
-0.0943979024887085
-0.07713059335947037
-0.0416296124458313
-0.055846817791461945
-0.09357548505067825
-0.03541865944862366
-0.0700908675789833
-0.042617179453372955
-0.016785360872745514
-0.027805767953395844
-0.04386237636208534
-0.01065592747181654
-0.023346826434135437
-0.02871990203857422
-0.0680951476097107
-0.08431883901357651
-0.0702303797006607
0.01646135188639164
-0.011561964638531208
-0.0048738764598965645
0.022695103660225868
-0.07433109730482101
-0.08333168178796768
-0.0578014962375164
-0.05931655690073967
-0.06462306529283524
-0.02335834875702858
-0.01002555526793003
-0.05664819851517677
-0.04890814051032066
-0.09725002944469452
-0.07843943685293198
-0.0838923379778862
-0.03701166808605194
-0.05735321715474129
-0.0459955669939518
-0.03516111150383949
-0.06973743438720703
0.004107019864022732
-0.015916947275400162
-0.026848232373595238
-0.0497533418238163
-0.06380853056907654
-0.06476672738790512
-0.08760815113782883
-0.0367036908864975
0.011624140664935112
-0.028764955699443817
-2.6047231585835107e-05
0.0235765241086483
-0.08357621729373932
-0.0515836700797081
-0.008025347255170345
-0.04166071489453316
-0.09195929765701294
-0.038645170629024506
-0.08511021733283997
-0.07651730626821518
-0.06033814698457718
-0.09605583548545837
-0.08921860158443451
-0.1038043275475502
-0.11034820228815079
-0.10692829638719559
-0.08387785404920578
-0.0344485379755497
-0.036576587706804276
-0.006783873774111271
-0.024608416482806206
-0.07328638434410095
-0.048780299723148346
-0.07793965190649033
-0.06192867457866669
-0.04614429548382759
-0.016080517321825027
0.01761532761156559
-0.009690617211163044
-0.01717541180551052
-0.07256732881069183
-0.07306106388568878
-0.03420773148536682
-0.05889583379030228
-0.07154391705989838
-0.0376877561211586
-0.04237942397594452
-0.05036817491054535
-0.10826567560434341
-0.047050006687641144
-0.0625397264957428
-0.11134231090545654
-0.09406554698944092
-0.08693442493677139
-0.0328562930226326
-0.07477515190839767
-0.008459195494651794
-0.024721376597881317
-0.037253204733133316
-0.10389145463705063
-0.09314721077680588
-0.11209085583686829
-0.06519290804862976
-0.013811622746288776
0.030286487191915512
-0.0074011050164699554
0.009580153040587902
-0.043693579733371735
-0.10379227995872498
-0.012722261250019073
-0.018978556618094444
0.016806745901703835
-0.008103658445179462
-0.06139257922768593
-0.056476544588804245
-0.04158572107553482
-0.10420458763837814
-0.01394807081669569
-0.098114974796772
-0.0881531611084938
-0.042461223900318146
-0.003424264257773757
-0.023997673764824867
-0.05608122795820236
0.0001615918445168063
-0.0598943866789341
-0.04142215847969055
0.0336279571056366
0.022528663277626038
-0.052229855209589005
0.02330234833061695
0.03154897689819336
0.006336595397442579
-0.014744086191058159
-0.0027546074707061052
0.028257524594664574
-0.08086001127958298
-0.07666707038879395
0.038001637905836105
0.0005144982133060694
-0.012382627464830875
-0.04628512263298035
-0.07358910143375397
-0.11618161201477051
-0.06369146704673767
-0.09344866126775742
-0.09205612540245056
-0.07525910437107086
-0.02559632807970047
-0.06230568140745163
-0.0048291608691215515
-0.0627378523349762
-0.026606503874063492
-0.02504616044461727
-0.08556154370307922
-0.10846088081598282
-0.043914880603551865
-0.06043030694127083
0.0154231833294034
-0.004267028532922268
0.025308920070528984
0.020594555884599686
-0.013125160709023476
-0.027248643338680267
-0.011793447658419609
-0.08600838482379913
-0.11161436885595322
0.02871900424361229
0.01187827717512846
-0.06191778928041458
-0.03950260579586029
-0.08842358738183975
-0.053813956677913666
-0.0727623775601387
-0.10920056700706482
-0.08385374397039413
-0.015446880832314491
-0.03359583020210266
-0.00688203563913703
-0.015478062443435192
-0.02274506725370884
0.012951353564858437
0.057718392461538315
-0.07566998898983002
-0.06080673635005951
-0.08905071765184402
-0.014293449930846691
-0.024565616622567177
0.034376829862594604
-0.019580496475100517
-0.011743281967937946
-0.008262941613793373
0.02867344208061695
-0.029029907658696175
-0.028206368908286095
-0.09566804766654968
0.02921205759048462
-0.0634918361902237
-0.0680750235915184
-0.08215616643428802
0.00234615127556026
0.0026988291647285223
0.026038268581032753
-0.05611075460910797
-0.00021132573601789773
-0.03927795588970184
-0.03704409301280975
-0.00014093739446252584
0.0467715859413147
0.0800262987613678
0.07302024960517883
0.06203613430261612
-0.029704414308071136
-0.06533585488796234
-0.013053570874035358
-0.010720661841332912
0.034097522497177124
-0.03019510582089424
0.004583652596920729
0.03239123895764351
-0.02662249282002449
0.026203740388154984
0.04927099496126175
0.0911368653178215
-0.03511016070842743
-0.07492940872907639
-0.06363368779420853
-0.08900773525238037
0.07492668181657791
-0.007753610145300627
0.018757566809654236
0.015622640959918499
-0.029930269345641136
-0.08216159790754318
-0.008005425333976746
-0.0031576668843626976
0.0228036567568779
0.0012343823909759521
0.014650107361376286
0.03074926696717739
0.026917049661278725
0.010732357390224934
-0.0035524668637663126
0.026474596932530403
0.03145440295338631
-0.028746865689754486
0.017337944358587265
-0.03244573622941971
-0.02236819453537464
0.019334401935338974
-0.01004860270768404
-0.04263561591506004
-0.08558956533670425
-0.08962330967187881
-0.06041126698255539
-0.049480777233839035
-0.05368996039032936
-0.09152264147996902
-0.025807002559304237
-0.09128852933645248
-0.023011045530438423
-0.09162767231464386
-0.046647585928440094
0.031253788620233536
0.06226583942770958
0.010394922457635403
-0.009110081009566784
-0.01779496669769287
-0.006003946531563997
-0.029352756217122078
0.01966078393161297
0.02395598031580448
-0.03249882534146309
0.03019808977842331
-0.025174222886562347
0.028280025348067284
-0.01010889746248722
0.0016857258742675185
0.008003124967217445
-0.033150564879179
-0.03435869142413139
-0.028770949691534042
0.01722639799118042
0.027531642466783524
-0.011323950253427029
0.010051574558019638
-0.030188148841261864
0.010620931163430214
-0.010402258485555649
0.00011331694986438379
0.023581096902489662
-0.00829094648361206
-0.022890998050570488
-0.014018089510500431
0.00465819239616394
-0.017728878185153008
-0.007240942679345608
0.012686210684478283
-0.019550753757357597
0.005259769503027201
-0.033810075372457504
0.01677682250738144
0.02281893603503704
-0.027610227465629578
0.025901813060045242
-0.01966179348528385
-0.021838171407580376
0.02829132042825222
0.0045541441068053246
0.028841977939009666
-0.01071174256503582
0.032409653067588806
-0.008895180188119411
0.020611964166164398
0.031712234020233154
-0.02860523760318756
0.011066914536058903
-0.030966036021709442
0.014765356667339802
-0.009959021583199501
-0.027332738041877747
0.0005772028816863894
0.011994745582342148
-0.005056168418377638
-0.019012873992323875
-0.012097027152776718
-0.01874571293592453
-0.024112693965435028
-0.0017205392941832542
0.02565823309123516
-0.02124394290149212
-0.03269098326563835
-0.02841116487979889
-0.003913521766662598
-0.0023649379145354033
0.005742878187447786
-0.02910725772380829
0.0067088608630001545
0.026173098012804985
0.08491164445877075
-0.08384514600038528
-0.08145995438098907
-0.05212771147489548
-0.028826624155044556
-0.09200967103242874
-0.06753358244895935
0.029078379273414612
0.09322069585323334
0.031162535771727562
0.06665932387113571
0.027072563767433167
0.02733200043439865
-0.033458102494478226
-0.031182311475276947
-0.029680505394935608
-0.03094678744673729
-0.022991318255662918
-0.01480066403746605
-0.010741634294390678
-0.03078496642410755
0.025079689919948578
0.02205827459692955
-0.007667584344744682
0.05011647194623947
0.04627739265561104
0.03756153956055641
0.08100057393312454
0.07448127865791321
0.043964143842458725
-0.04125110059976578
-0.0449383519589901
-0.02454269863665104
-0.07457997649908066
-0.05590538680553436
0.08583109825849533
0.05399013310670853
0.029042623937129974
0.08843249827623367
0.02725890837609768
0.08651333302259445
-0.009114142507314682
-0.0012816957896575332
-0.012975135818123817
-0.00451483903452754
-0.018470028415322304
-0.023404458537697792
-0.022392291575670242
0.01880582794547081
0.03473975509405136
-0.025492098182439804
0.05226919427514076
-0.030666448175907135
-0.07473545521497726
-0.0678950846195221
-0.05197562277317047
-0.028243614360690117
-0.03383645415306091
-0.048154450953006744
-0.09159788489341736
-0.07718416303396225
-0.08418165892362595
-0.0627228170633316
-0.06405875086784363
-0.047795914113521576
-0.07974731177091599
-0.05469817668199539
-0.0335967093706131
0.02794996276497841
-0.047083236277103424
-0.04100866988301277
0.007505115121603012
0.014515255577862263
0.031068893149495125
-0.014798480086028576
0.01851922832429409
-0.017555709928274155
-0.07483872771263123
0.09269873797893524
0.04202868789434433
-0.0482863113284111
-0.0926518440246582
-0.09391310065984726
-0.06597094237804413
-0.09111073613166809
-0.0572977252304554
-0.02448493428528309
-0.036125898361206055
-0.06115129962563515
-0.07469147443771362
-0.047837864607572556
-0.037650588899850845
-0.05719441920518875
-0.02641071006655693
-0.06897560507059097
-0.032660335302352905
-0.07946966588497162
-0.0938556045293808
-0.05579039454460144
-0.09461198002099991
-0.04026385396718979
-0.03544352576136589
-0.007924978621304035
-0.006654028780758381
-0.004177391529083252
0.05678318068385124
0.08709540963172913
0.07303840667009354
-0.07923527806997299
-0.051435958594083786
-0.03140049800276756
-0.04456358402967453
-0.06092644855380058
-0.08033806830644608
-0.03139131888747215
-0.03886944800615311
-0.027731196954846382
-0.049687229096889496
-0.07512503862380981
-0.08978311717510223
-0.043228596448898315
-0.05546391382813454
-0.07371479272842407
-0.026407038792967796
-0.08080161362886429
-0.04209017753601074
0.02673380635678768
0.0950140431523323
-0.0847090557217598
-0.08212950080633163
-0.004861589055508375
-0.03043743222951889
0.01064175833016634
0.05934501811861992
-0.08994169533252716
-0.0820782333612442
-0.045464545488357544
-0.04271690547466278
-0.07405818998813629
-0.04118315875530243
-0.059581633657217026
-0.08786952495574951
-0.03334071859717369
-0.0733688473701477
-0.04528280720114708
-0.041390448808670044
-0.04524325579404831
-0.030366867780685425
-0.08538639545440674
-0.0286472849547863
-0.08358749002218246
0.03193845599889755
-0.05973898991942406
-0.03280045464634895
0.046617213636636734
0.036552704870700836
-0.037600208073854446
-0.046855341643095016
0.01181401964277029
-0.02823929861187935
-0.010809545405209064
-0.03541881963610649
-0.07513692229986191
-0.06405886262655258
-0.09564322978258133
-0.06900262832641602
-0.08915994316339493
-0.0392446406185627
0.042648475617170334
-0.04888884350657463
-0.04310135543346405
-0.07218191772699356
-0.02620268613100052
-0.028146348893642426
-0.05820091813802719
-0.07745412737131119
-0.07078749686479568
-0.032761987298727036
-0.052594415843486786
-0.077956922352314
0.059058040380477905
0.05248299241065979
0.05485353618860245
0.0935845673084259
-0.09097679704427719
0.014076502062380314
-0.005811265669763088
-0.031220722943544388
0.0102919340133667
-0.07760414481163025
-0.048814911395311356
0.0372445322573185
-0.04485394060611725
-0.04602419584989548
-0.07363216578960419
-0.042207904160022736
-0.03613894805312157
-0.03272288292646408
-0.08561670035123825
-0.07917425036430359
-0.030625062063336372
-0.057342659682035446
-0.05147456005215645
-0.04153630509972572
-0.09111311286687851
-0.0644054114818573
-0.07318924367427826
-0.02627044916152954
-0.0717318132519722
0.07546532899141312
0.034696850925683975
-0.03515061363577843
-0.09345342963933945
-0.014406387694180012
0.02668902836740017
0.006471400149166584
0.02017378807067871
0.02141406387090683
0.08309546858072281
-0.09400298446416855
-0.05671309307217598
-0.05507319048047066
-0.08652600646018982
-0.08919405937194824
-0.08281882107257843
-0.08714707940816879
-0.08522142469882965
-0.08900193125009537
-0.0719032883644104
-0.0758574903011322
-0.0398627407848835
-0.0399116650223732
-0.04923580586910248
-0.06168246269226074
-0.06275229901075363
-0.07529661804437637
0.08144307881593704
0.08863477408885956
0.09226072579622269
-0.09103408455848694
-0.037483520805835724
-0.01706056110560894
0.005158620420843363
-0.01401867251843214
-0.02987072430551052
0.021966757252812386
0.03880380839109421
-0.044465627521276474
-0.06224929168820381
-0.03806127607822418
-0.08432087302207947
-0.06374895572662354
-0.05764473229646683
-0.06246922165155411
-0.056157276034355164
-0.06462816148996353
-0.0630098506808281
-0.0496770404279232
-0.09276514500379562
-0.0710916742682457
-0.06491749733686447
-0.06747671216726303
-0.05873990058898926
-0.08181782066822052
0.028724508360028267
0.02518812008202076
-0.09378336369991302
0.07218904793262482
0.0012230405118316412
-0.012663743458688259
0.019967906177043915
0.024635422974824905
-0.014120886102318764
-0.006081977393478155
0.09081217646598816
0.060847070068120956
-0.04315752163529396
-0.027397843077778816
-0.07994502782821655
-0.06682989746332169
-0.03762773424386978
-0.06513366103172302
-0.046156059950590134
-0.0777638778090477
-0.04261263087391853
-0.055329035967588425
-0.08255793899297714
-0.07355786114931107
-0.0682859867811203
-0.055315934121608734
-0.07255866378545761
-0.07654163986444473
0.04538514092564583
0.06353345513343811
-0.06251529604196548
0.08538490533828735
0.029057402163743973
-0.024752626195549965
0.023980120196938515
-0.004022436682134867
-0.02772975154221058
0.007588902022689581
0.03896772116422653
0.06614163517951965
0.06149255111813545
-0.06661366671323776
-0.029643772169947624
-0.09020394831895828
-0.059373777359724045
-0.0669831857085228
-0.03518645092844963
-0.051961202174425125
-0.033467814326286316
-0.05211706459522247
-0.042684368789196014
-0.03070351481437683
-0.08563879877328873
-0.027142900973558426
-0.08690177649259567
-0.02741769701242447
-0.07256515324115753
-0.08449549973011017
0.08291345834732056
0.06323150545358658
0.032149411737918854
0.02810259908437729
-0.028917232528328896
-0.04179121181368828
0.008284888230264187
0.02836943231523037
0.024897143244743347
0.07688390463590622
0.03138796240091324
-0.06167668104171753
-0.08908024430274963
0.026821833103895187
-0.06982715427875519
-0.040324099361896515
-0.03869254142045975
-0.026613352820277214
-0.044911984354257584
-0.0851484015583992
-0.02675982378423214
-0.06761744618415833
-0.058270830661058426
-0.04610872641205788
-0.04121057316660881
-0.03881581127643585
-0.04232192039489746
-0.06550958752632141
0.05199504643678665
0.07768576592206955
-0.02676169015467167
0.02263311855494976
-0.012931632809340954
0.02930232137441635
-0.06608819961547852
-0.052766770124435425
-0.0431518480181694
-0.058915626257658005
0.0840747281908989
-0.06611397117376328
-0.04976343736052513
-0.07240810245275497
-0.08861126750707626
-0.029612062498927116
-0.06912878900766373
-0.06974157691001892
-0.07848737388849258
-0.09476625919342041
-0.05318606272339821
-0.08397623151540756
-0.04673916473984718
-0.07601353526115417
-0.07548663020133972
-0.04878038167953491
-0.031145138666033745
-0.06824663281440735
0.09322004020214081
0.08278381079435349
-0.0026974978391081095
0.007686500437557697
-0.012998547405004501
0.02645670622587204
-0.08968164771795273
-0.053142573684453964
-0.07785185426473618
-0.046082235872745514
-0.06566168367862701
-0.037802357226610184
-0.05572179704904556
-0.08586442470550537
-0.07806407660245895
-0.04630473256111145
-0.035522181540727615
-0.08114846795797348
-0.03149910271167755
-0.07786694169044495
-0.07624511420726776
-0.05133529752492905
-0.09170754998922348
-0.033150285482406616
-0.09253937005996704
-0.03675912693142891
-0.07667012512683868
0.09073219448328018
0.0896899402141571
0.05179061368107796
0.07205807417631149
0.023603269830346107
-0.001594011322595179
-0.005769819486886263
0.06834456324577332
-0.044924210757017136
-0.05736224725842476
-0.0318458117544651
-0.06307651847600937
-0.05471058934926987
-0.07347141951322556
-0.07737378031015396
-0.07058919966220856
-0.09476445615291595
-0.05085836350917816
-0.05995245277881622
-0.08900057524442673
-0.05624118447303772
-0.09259479492902756
-0.09358564764261246
-0.031305454671382904
-0.04745139554142952
-0.0638044998049736
-0.055277109146118164
-0.07725228369235992
0.07037695497274399
0.08659740537405014
0.06415334343910217
0.07991641014814377
0.007646386511623859
0.02293790690600872
-0.005042599979788065
0.05116832256317139
-0.08320482075214386
-0.03850528597831726
-0.06295063346624374
-0.07215040922164917
-0.08882147073745728
-0.08416717499494553
-0.0824279710650444
-0.03738221898674965
-0.08074019849300385
-0.07560253888368607
-0.03827474266290665
-0.03449688479304314
-0.05004647374153137
-0.03757183626294136
-0.04653223603963852
-0.04334740713238716
-0.0949339047074318
-0.040933944284915924
-0.09115488082170486
-0.039802100509405136
0.03829698637127876
0.07915010303258896
0.025760244578123093
-0.01031353697180748
-0.0032698768191039562
0.019451431930065155
0.010413629934191704
0.09448544681072235
-0.08931074291467667
-0.05709749460220337
-0.0753781646490097
-0.07005838304758072
-0.025899458676576614
-0.040217723697423935
-0.034617990255355835
-0.07028166204690933
-0.0384552925825119
-0.0712752565741539
-0.07376937568187714
-0.08341767638921738
-0.042155392467975616
-0.07539765536785126
-0.05005943402647972
-0.07003704458475113
-0.05714372545480728
-0.08092166483402252
-0.07116347551345825
0.06972435116767883
0.037866298109292984
0.03878745809197426
-0.08015165477991104
-0.004879394080489874
-0.020581459626555443
-0.02412121742963791
-0.03304009139537811
-0.03319864720106125
-0.06794445961713791
-0.0603468082845211
-0.09387922286987305
-0.07582136988639832
-0.04344315826892853
-0.03406180441379547
-0.053051870316267014
-0.053210027515888214
-0.052407603710889816
-0.033936865627765656
-0.05491003394126892
-0.0341959074139595
-0.08916117995977402
-0.07843993604183197
-0.07113897055387497
-0.06266885995864868
-0.05849528685212135
-0.029351774603128433
-0.025770535692572594
0.024804698303341866
0.09368008375167847
-0.07033025473356247
-0.08058536797761917
0.005067795515060425
-0.032465290278196335
0.002347409725189209
0.008145881816744804
-0.015344241634011269
0.04645562544465065
-0.0314507856965065
-0.05337058752775192
-0.09079292416572571
-0.048393167555332184
-0.03884020820260048
-0.07195331156253815
-0.05885489657521248
-0.049815818667411804
-0.04274486005306244
-0.05422436445951462
-0.07482828199863434
-0.03379296883940697
-0.08245859295129776
-0.07007903605699539
-0.08429240435361862
-0.06580336391925812
-0.03809494897723198
-0.07851577550172806
0.09225814789533615
0.05688086152076721
0.05304865911602974
-0.012358193285763264
0.02976263128221035
-0.015210786834359169
-0.029468754306435585
0.028464170172810555
-0.07078403979539871
0.04261678457260132
0.07266590744256973
-0.04075765237212181
-0.07461363077163696
-0.0691458061337471
-0.05720387026667595
-0.0272612776607275
-0.0880904272198677
-0.07539426535367966
-0.07606355100870132
-0.07001665979623795
-0.033945124596357346
-0.03888140991330147
-0.08844580501317978
-0.0757623016834259
-0.026222428306937218
-0.06001540273427963
-0.061063267290592194
0.06679515540599823
-0.08639900386333466
-0.05336391553282738
0.03191758692264557
-0.016708681359887123
0.031501736491918564
-0.03119725175201893
0.032930903136730194
-0.014174534007906914
-0.06049429252743721
-0.05890436843037605
-0.06656631827354431
-0.087115079164505
-0.028326034545898438
-0.048090770840644836
-0.058766648173332214
-0.06556659191846848
-0.030937546864151955
-0.043634288012981415
-0.024650150910019875
-0.08781764656305313
-0.039385538548231125
-0.054129913449287415
-0.024435020983219147
-0.028731022030115128
-0.028116988018155098
0.04696253687143326
0.036683451384305954
0.04291357845067978
0.07210028916597366
0.024652807042002678
0.06965527683496475
-0.01500464417040348
0.025340672582387924
0.026086820289492607
0.008813858032226562
-0.015875305980443954
0.03290693461894989
-0.02427509054541588
0.06038748472929001
0.0675072968006134
0.06910117715597153
0.07996921986341476
-0.058679115027189255
-0.08627358824014664
-0.04467201977968216
-0.05858009308576584
-0.055493682622909546
-0.07314319163560867
-0.07114584743976593
-0.033046282827854156
0.06966643035411835
0.06092487648129463
0.09074392914772034
0.024437909945845604
0.05804518610239029
0.06953456252813339
0.07485361397266388
0.059526026248931885
0.08195038884878159
0.006203021388500929
-0.007836828008294106
-0.03149920329451561
0.03504139184951782
-0.012349823489785194
-0.003927950747311115
0.008666902780532837
0.0858180969953537
0.04287659749388695
-0.06298577040433884
-0.024459052830934525
0.058792710304260254
0.09420611709356308
-0.03170393034815788
-0.042906057089567184
-0.09506760537624359
-0.06902645528316498
-0.07210829108953476
-0.06034459173679352
-0.09365306794643402
-0.08043954521417618
-0.08031214773654938
0.08010904490947723
0.06299407035112381
0.0029662081506103277
0.018307585269212723
0.06353865563869476
0.046211451292037964
0.02126019075512886
-0.03283426910638809
0.030052419751882553
0.02835029922425747
0.01742684468626976
-0.00350018497556448
-0.009128439240157604
0.01328219287097454
-0.07428532093763351
-0.03892788290977478
-0.047393955290317535
0.035317275673151016
0.028808454051613808
-0.09219220280647278
-0.029029149562120438
-0.03981678560376167
-0.08404390513896942
-0.02796807326376438
-0.0480884425342083
-0.022584451362490654
0.02775540202856064
0.025913052260875702
0.021016325801610947
0.031071314588189125
-0.015516252256929874
-0.007771756500005722
0.01093005295842886
-0.0022897764574736357
0.024066491052508354
0.007780092302709818
-0.010387050919234753
0.01097810734063387
-0.0200476236641407
-0.016641724854707718
-0.004272857215255499
0.004188030958175659
-0.007196894846856594
0.01661941409111023
-0.03307945281267166
0.01973818615078926
0.021021099761128426
0.022291434928774834
-0.025420965626835823
0.014697258360683918
-0.01971522532403469
-0.0065007638186216354
-0.01714029535651207
0.02170599065721035
-0.031589996069669724
0.01789180375635624
-0.004179907962679863
-0.01024019718170166
0.01423841342329979
0.014227919280529022
0.015808386728167534
0.021020831540226936
0.03356718644499779
-0.010067812167108059
0.008879048749804497
-0.0036420654505491257
0.01384587399661541
-0.02074047178030014
-0.021741395816206932
-0.005656928289681673
-0.021664591506123543
-0.0015074909897521138
0.03407202288508415
0.006095933262258768
-0.028164643794298172
0.027682092040777206
-0.007022913545370102
-0.15734988451004028
-0.1579478532075882
-0.07435014843940735
-0.01885460503399372
0.026655126363039017
0.030046286061406136
-0.01652170531451702
-0.007131053134799004
0.010168859735131264
0.005617035552859306
-0.027227582409977913
0.026300465688109398
-0.006279251538217068
-0.0027402853593230247
0.013740727677941322
-0.022989554330706596
0.030550021678209305
-0.01300930604338646
-0.0006275305058807135
-0.0269770585000515
-0.048698317259550095
-0.7241771817207336
-0.2761913537979126
-0.34296301007270813
0.2282860279083252
0.179192915558815
-0.9930676817893982
0.6733999848365784
0.13533510267734528
-0.3406187891960144
0.38127970695495605
0.0069118705578148365
-0.332083135843277
-0.09300568699836731
-0.19581377506256104
-0.33740589022636414
-0.20103423297405243
-0.10472837090492249
0.6052989959716797
0.4341506361961365
0.029246097430586815
-0.01189165934920311
-0.0013436846202239394
-0.024870289489626884
-0.01703643798828125
-0.03402175381779671
-0.06668436527252197
-0.19262643158435822
0.577387273311615
-1.8825966119766235
-1.7154990434646606
-1.5312631130218506
-0.8991891145706177
